{"learner":{"attributes":{"best_iteration":"95","best_score":"0.6985361574132096"},"feature_names":["context_script_injection","context_event_handler","context_js_uri","context_tag_injection","context_attribute","context_template_injection","context_dom_sink","context_attribute_escape","waf_cloudflare","waf_akamai","waf_aws_waf","waf_imperva","waf_f5","waf_modsecurity","waf_wordfence","waf_sucuri","waf_none","payload_length","tag_count","event_handler_count","quote_count","has_auto_trigger","has_eval","has_dom_sink","has_js_uri","has_comment","special_char_diversity","encoding_depth","technique_original","technique_mutated","technique_obfuscated","technique_index","severity_value","char_coverage_ratio","length_bucket","context_technique_alignment"],"feature_types":[],"gradient_booster":{"model":{"gbtree_model_param":{"num_parallel_tree":"1","num_trees":"146"},"iteration_indptr":[0,1,2,3,4,5,6,7,8,9,10,11,12,13,14,15,16,17,18,19,20,21,22,23,24,25,26,27,28,29,30,31,32,33,34,35,36,37,38,39,40,41,42,43,44,45,46,47,48,49,50,51,52,53,54,55,56,57,58,59,60,61,62,63,64,65,66,67,68,69,70,71,72,73,74,75,76,77,78,79,80,81,82,83,84,85,86,87,88,89,90,91,92,93,94,95,96,97,98,99,100,101,102,103,104,105,106,107,108,109,110,111,112,113,114,115,116,117,118,119,120,121,122,123,124,125,126,127,128,129,130,131,132,133,134,135,136,137,138,139,140,141,142,143,144,145,146],"tree_info":[0,0,0,0,0,0,0,0,0,0,0,0,0,0,0,0,0,0,0,0,0,0,0,0,0,0,0,0,0,0,0,0,0,0,0,0,0,0,0,0,0,0,0,0,0,0,0,0,0,0,0,0,0,0,0,0,0,0,0,0,0,0,0,0,0,0,0,0,0,0,0,0,0,0,0,0,0,0,0,0,0,0,0,0,0,0,0,0,0,0,0,0,0,0,0,0,0,0,0,0,0,0,0,0,0,0,0,0,0,0,0,0,0,0,0,0,0,0,0,0,0,0,0,0,0,0,0,0,0,0,0,0,0,0,0,0,0,0,0,0,0,0,0,0,0,0],"trees":[{"base_weights":[7.1278266E-3,7.157181E-2,-5.144189E-1,1.27704E-1,-4.3968555E-1,-3.820409E-1,-8.0278623E-1,2.3951116E-1,-2.0960855E-1,-1.6581367E-1,-8.00763E-1,-2.8783578E-1,-9.835881E-2,3.4354937E-3,-9.236443E-1,1.4766462E-1,1.8729956E-1,-3.7303692E-1,5.1591986E-1,-5.4295903E-1,4.3763828E-2,-8.950963E-1,-1.9291705E-2,-1.1666979E-1,-6.995554E-1,-4.6220925E-2,-9.9862343E-1,2.3634465E-1,-2.8636292E-1,3.9049208E-1,-5.175246E-1,6.5025747E-1,-3.9381456E-2,5.7841274E-3,-9.740106E-2,-8.70105E-2,5.9925586E-2,-3.9931723E-1,-1.1480893E-1,2.0802E-2,-9.1907196E-2,3.4354937E-3,-8.9427136E-2,-1.2456321E-1,-4.0289767E-2,3.081354E-2,-2.3582166E-2,-3.7647963E-2,3.081966E-2,7.1675934E-2,-3.341083E-2,-6.425809E-2,1.2294676E-2,1.2487948E-1,4.0367257E-2,3.7813112E-2,-2.8142044E-2,-9.66223E-2,3.521688E-2,2.306885E-2,-1.2063066E-2],"categories":[],"categories_nodes":[],"categories_segments":[],"categories_sizes":[],"default_left":[0,0,0,0,0,0,0,0,0,0,0,0,0,0,0,0,0,0,0,0,0,0,0,0,0,0,0,0,0,0,0,0,0,0,0,0,0,0,0,0,0,0,0,0,0,0,0,0,0,0,0,0,0,0,0,0,0,0,0,0,0],"id":0,"left_children":[1,3,5,7,9,11,13,15,17,19,21,23,-1,-1,25,27,-1,29,31,33,35,37,-1,39,41,-1,43,45,47,49,51,53,-1,-1,-1,55,-1,57,-1,59,-1,-1,-1,-1,-1,-1,-1,-1,-1,-1,-1,-1,-1,-1,-1,-1,-1,-1,-1,-1,-1],"loss_changes":[2.4795197E1,1.8896187E1,2.7903976E0,2.238897E1,6.312047E0,2.9761229E0,2.522501E0,6.653638E1,1.7739914E1,3.0528398E0,1.4242172E0,3.5223436E0,0E0,0E0,2.8395844E-1,1.6337593E1,0E0,1.3590975E1,3.6323633E0,3.620751E0,1.9088727E0,2.530939E0,0E0,4.1361065E0,2.1481676E0,0E0,2.0989723E0,1.198896E1,3.98272E0,4.9398117E0,8.287264E0,3.1043463E0,0E0,0E0,0E0,2.0562205E0,0E0,4.424144E0,0E0,1.0027242E0,0E0,0E0,0E0,0E0,0E0,0E0,0E0,0E0,0E0,0E0,0E0,0E0,0E0,0E0,0E0,0E0,0E0,0E0,0E0,0E0,0E0],"parents":[2147483647,0,0,1,1,2,2,3,3,4,4,5,5,6,6,7,7,8,8,9,9,10,10,11,11,14,14,15,15,17,17,18,18,19,19,20,20,21,21,23,23,24,24,26,26,27,27,28,28,29,29,30,30,31,31,35,35,37,37,39,39],"right_children":[2,4,6,8,10,12,14,16,18,20,22,24,-1,-1,26,28,-1,30,32,34,36,38,-1,40,42,-1,44,46,48,50,52,54,-1,-1,-1,56,-1,58,-1,60,-1,-1,-1,-1,-1,-1,-1,-1,-1,-1,-1,-1,-1,-1,-1,-1,-1,-1,-1,-1,-1],"split_conditions":[1E0,1E0,1E0,1E0,1E0,1E0,2.7E1,1.1E1,1E0,5E0,1E0,4E0,-9.835881E-2,3.4354937E-3,3.3333334E-1,1E0,1.8729956E-1,8.333333E-1,1E0,2.3E1,1E0,5E0,-1.9291705E-2,1E0,2.5E-1,-4.6220925E-2,1E0,1E0,7E0,3E0,1E0,2.2E1,-3.9381456E-2,5.7841274E-3,-9.740106E-2,2.7E1,5.9925586E-2,2.2E1,-1.1480893E-1,6E0,-9.1907196E-2,3.4354937E-3,-8.9427136E-2,-1.2456321E-1,-4.0289767E-2,3.081354E-2,-2.3582166E-2,-3.7647963E-2,3.081966E-2,7.1675934E-2,-3.341083E-2,-6.425809E-2,1.2294676E-2,1.2487948E-1,4.0367257E-2,3.7813112E-2,-2.8142044E-2,-9.66223E-2,3.521688E-2,2.306885E-2,-1.2063066E-2],"split_indices":[7,15,18,4,28,9,17,31,28,26,3,31,0,0,33,5,0,33,11,17,0,26,0,13,33,0,29,13,31,27,30,17,0,0,0,17,0,17,0,26,0,0,0,0,0,0,0,0,0,0,0,0,0,0,0,0,0,0,0,0,0],"split_type":[0,0,0,0,0,0,0,0,0,0,0,0,0,0,0,0,0,0,0,0,0,0,0,0,0,0,0,0,0,0,0,0,0,0,0,0,0,0,0,0,0,0,0,0,0,0,0,0,0,0,0,0,0,0,0,0,0,0,0,0,0],"sum_hessian":[7.3562524E2,6.554932E2,8.0132065E1,5.9132086E2,6.417233E1,5.6513706E1,2.361836E1,4.4433084E2,1.4699002E2,3.732278E1,2.6849554E1,5.0140034E1,6.373672E0,3.0699108E0,2.0548449E1,4.2170963E2,2.262123E1,1.2036347E2,2.6626541E1,1.2763494E1,2.4559286E1,2.2833405E1,4.0161495E0,3.632278E1,1.3817255E1,3.873672E0,1.6674776E1,3.505426E2,7.116702E1,1.8881853E1,1.0148162E2,2.3449108E1,3.177433E0,5.6935825E0,7.069911E0,2.0561943E1,3.9973438E0,8.586061E0,1.4247344E1,3.1841585E1,4.481194E0,3.0699108E0,1.0747344E1,1.10161495E1,5.6586275E0,3.0458002E2,4.59626E1,6.2118572E1,9.048449E0,1.3026987E1,5.854866E0,8.490087E1,1.6580748E1,5.655971E0,1.7793137E1,5.782299E0,1.4779643E1,4.731194E0,3.854866E0,1.2564598E1,1.9276987E1],"tree_param":{"num_deleted":"0","num_feature":"36","num_nodes":"61","size_leaf_vector":"1"}},{"base_weights":[-2.863128E-3,7.2361626E-2,-6.1764127E-1,1.5315107E-1,-5.044479E-1,-4.4252488E-1,-1.0497341E0,2.8253272E-1,-2.694694E-1,-6.1158997E-1,3.537485E-1,-5.335945E-1,3.958631E-2,-1.2534332E-1,1.1008124E-2,1.1599091E-1,8.028501E-1,4.8255265E-2,-6.66386E-1,-6.8553835E-1,8.857765E-2,9.632044E-3,4.9978692E-2,-6.2291104E-1,1.3897759E-2,3.272072E-2,7.0324975E-1,1.1688653E0,-1.4844413E-1,-3.178714E-2,6.495866E-1,-7.53129E-1,4.3177616E-2,-2.5682962E-2,-7.07943E-1,-1.7226333E-2,3.5035457E-2,-1.22983694E-1,-7.277923E-1,-1.2117787E-2,2.3139458E-2,-1.8736372E-2,7.917373E-2,1.4155613E-1,2.1294253E-2,-5.8034945E-2,7.121121E-2,-2.6069233E-2,1.4083606E-2,1.114318E-1,1.2558381E-2,-6.050361E-2,-1.4156197E-1,-5.7428565E-2,-8.523664E-2,4.575582E-2,-5.614994E-2,-8.433704E-2,7.832509E-3],"categories":[],"categories_nodes":[],"categories_segments":[],"categories_sizes":[],"default_left":[0,0,0,0,0,0,0,0,0,0,0,0,0,0,0,0,0,0,0,0,0,0,0,0,0,0,0,0,0,0,0,0,0,0,0,0,0,0,0,0,0,0,0,0,0,0,0,0,0,0,0,0,0,0,0,0,0,0,0],"id":1,"left_children":[1,3,5,7,9,11,13,15,17,19,21,23,-1,-1,-1,25,27,29,31,33,35,-1,-1,37,-1,39,41,43,45,47,49,51,-1,-1,53,-1,-1,55,57,-1,-1,-1,-1,-1,-1,-1,-1,-1,-1,-1,-1,-1,-1,-1,-1,-1,-1,-1,-1],"loss_changes":[3.401757E1,3.0619518E1,5.603319E0,3.155273E1,7.6415596E0,4.7002354E0,5.42964E0,3.814062E1,1.7112282E1,3.7967567E0,3.1262815E-1,3.2979517E0,0E0,0E0,0E0,1.6378769E1,3.736457E1,3.6861756E0,6.0675564E0,4.46146E-1,5.9148496E-1,0E0,0E0,2.394474E0,0E0,9.0418215E0,3.4270763E0,1.7915306E1,1.1773784E1,2.7301264E0,2.049997E0,4.660595E0,0E0,0E0,6.9885254E-1,0E0,0E0,2.6546867E0,3.6955452E0,0E0,0E0,0E0,0E0,0E0,0E0,0E0,0E0,0E0,0E0,0E0,0E0,0E0,0E0,0E0,0E0,0E0,0E0,0E0,0E0],"parents":[2147483647,0,0,1,1,2,2,3,3,4,4,5,5,6,6,7,7,8,8,9,9,10,10,11,11,15,15,16,16,17,17,18,18,19,19,20,20,23,23,25,25,26,26,27,27,28,28,29,29,30,30,31,31,34,34,37,37,38,38],"right_children":[2,4,6,8,10,12,14,16,18,20,22,24,-1,-1,-1,26,28,30,32,34,36,-1,-1,38,-1,40,42,44,46,48,50,52,-1,-1,54,-1,-1,56,58,-1,-1,-1,-1,-1,-1,-1,-1,-1,-1,-1,-1,-1,-1,-1,-1,-1,-1,-1,-1],"split_conditions":[1E0,1E0,4.6E1,8E-1,1E0,1E0,5.8E1,1E0,1E0,1E0,2.2E1,1E0,3.958631E-2,-1.2534332E-1,1.1008124E-2,1E0,1E0,8E0,1E0,1E0,1E0,9.632044E-3,4.9978692E-2,1E0,1.3897759E-2,3.2E1,1.8E1,6E-1,3.9E1,1E0,2.5E1,3.4E1,4.3177616E-2,-2.5682962E-2,1E0,-1.7226333E-2,3.5035457E-2,1E0,1E0,-1.2117787E-2,2.3139458E-2,-1.8736372E-2,7.917373E-2,1.4155613E-1,2.1294253E-2,-5.8034945E-2,7.121121E-2,-2.6069233E-2,1.4083606E-2,1.114318E-1,1.2558381E-2,-6.050361E-2,-1.4156197E-1,-5.7428565E-2,-8.523664E-2,4.575582E-2,-5.614994E-2,-8.433704E-2,7.832509E-3],"split_indices":[6,7,17,35,12,10,17,16,16,16,17,8,0,0,0,12,4,31,32,21,25,0,0,20,0,17,17,35,17,4,17,17,0,0,28,0,0,28,9,0,0,0,0,0,0,0,0,0,0,0,0,0,0,0,0,0,0,0,0],"split_type":[0,0,0,0,0,0,0,0,0,0,0,0,0,0,0,0,0,0,0,0,0,0,0,0,0,0,0,0,0,0,0,0,0,0,0,0,0,0,0,0,0,0,0,0,0,0,0,0,0,0,0,0,0,0,0,0,0,0,0],"sum_hessian":[7.336037E2,6.544116E2,7.919205E1,5.74658E2,7.975361E1,5.779381E1,2.1398237E1,4.4021994E2,1.344381E2,7.115729E1,8.596324E0,5.245902E1,5.334794E0,1.8132837E1,3.2653997E0,3.3440683E2,1.0581312E2,7.515571E1,5.9282387E1,6.43788E1,6.7784853E0,3.7122104E0,4.884114E0,4.63744E1,6.0846157E0,2.9380286E2,4.0603973E1,7.624772E1,2.9565397E1,6.716289E1,7.9928226E0,5.5233707E1,4.048678E0,3.8163803E0,6.0562424E1,3.5665917E0,3.2118936E0,8.418645E0,3.7955757E1,1.6577711E2,1.2802574E2,3.5686493E0,3.7035324E1,6.0224648E1,1.6023071E1,1.9902248E1,9.663147E0,2.8655018E1,3.8507866E1,3.6389415E0,4.353881E0,4.670628E1,8.527431E0,3.4038094E1,2.6524328E1,3.6039827E0,4.8146625E0,3.3155792E1,4.7999654E0],"tree_param":{"num_deleted":"0","num_feature":"36","num_nodes":"59","size_leaf_vector":"1"}},{"base_weights":[1.9627074E-2,8.380319E-2,-5.034143E-1,1.4910118E-1,-3.9669E-1,-3.6243236E-1,-8.737616E-1,2.763971E-1,-2.5990143E-1,-5.00335E-1,4.536051E-1,-4.9555755E-1,4.6790272E-2,-1.0547941E-1,-5.7880547E-2,1.1726702E-1,7.778211E-1,3.993112E-2,-6.2113404E-1,-6.14838E-1,4.4173586E-1,7.382711E-2,8.4582825E-5,-5.732845E-1,1.6692774E-2,-1.6608055E-1,6.397062E-2,3.639716E-2,6.431407E-1,1.0852909E0,-5.230433E-2,-1.249163E-1,4.8680347E-1,-7.1607584E-1,6.1977517E-2,-3.9647388E-1,-7.021115E-1,6.0544122E-2,2.0620402E-2,-4.8730198E-1,-1.0353085E-1,-4.2470017E-1,1.7877404E-2,-1.3573122E-3,1.0376091E-1,7.6332696E-2,-2.0568693E-2,-1.6045542E-2,1.1782672E-1,-4.801872E-2,8.510095E-2,-6.1932307E-2,2.1924682E-2,6.693696E-2,-1.8322306E-3,-3.242947E-2,-9.969782E-2,5.7259994E-3,-8.2630254E-2,-7.610637E-2,-2.8599355E-2,-4.1134413E-2,-9.035266E-2,-7.2011374E-2,-5.0069685E-3],"categories":[],"categories_nodes":[],"categories_segments":[],"categories_sizes":[],"default_left":[0,0,0,0,0,0,0,0,0,0,0,0,0,0,0,0,0,0,0,0,0,0,0,0,0,0,0,0,0,0,0,0,0,0,0,0,0,0,0,0,0,0,0,0,0,0,0,0,0,0,0,0,0,0,0,0,0,0,0,0,0,0,0,0,0],"id":2,"left_children":[1,3,5,7,9,11,13,15,17,19,21,23,25,-1,-1,27,29,31,33,35,37,-1,-1,39,-1,41,-1,43,45,47,49,51,53,55,-1,57,59,-1,-1,61,-1,63,-1,-1,-1,-1,-1,-1,-1,-1,-1,-1,-1,-1,-1,-1,-1,-1,-1,-1,-1,-1,-1,-1,-1],"loss_changes":[2.4781384E1,2.0682865E1,3.8963242E0,3.023843E1,7.181633E0,3.3000937E0,5.395756E-1,3.5205856E1,1.4976267E1,7.9105587E0,1.1720437E0,2.4372215E0,2.0850954E0,0E0,0E0,1.4307257E1,2.7211601E1,5.6868467E0,7.8274155E0,9.3291855E-1,1.9350553E-1,0E0,0E0,1.121211E0,0E0,1.1756331E0,0E0,1.4679207E1,4.7328777E0,9.186447E0,1.1891611E1,9.764482E0,1.9290528E0,6.1347046E0,0E0,4.0349436E0,8.644905E-1,0E0,0E0,7.788801E-1,0E0,7.765428E-1,0E0,0E0,0E0,0E0,0E0,0E0,0E0,0E0,0E0,0E0,0E0,0E0,0E0,0E0,0E0,0E0,0E0,0E0,0E0,0E0,0E0,0E0,0E0],"parents":[2147483647,0,0,1,1,2,2,3,3,4,4,5,5,6,6,7,7,8,8,9,9,10,10,11,11,12,12,15,15,16,16,17,17,18,18,19,19,20,20,23,23,25,25,27,27,28,28,29,29,30,30,31,31,32,32,33,33,35,35,36,36,39,39,41,41],"right_children":[2,4,6,8,10,12,14,16,18,20,22,24,26,-1,-1,28,30,32,34,36,38,-1,-1,40,-1,42,-1,44,46,48,50,52,54,56,-1,58,60,-1,-1,62,-1,64,-1,-1,-1,-1,-1,-1,-1,-1,-1,-1,-1,-1,-1,-1,-1,-1,-1,-1,-1,-1,-1,-1,-1],"split_conditions":[1E0,1E0,1E0,8E-1,1E0,5E0,1E0,1E0,1E0,1E0,2.7E1,1E0,1E0,-1.0547941E-1,-5.7880547E-2,1E0,1E0,3E0,1E0,1E0,2.2E1,7.382711E-2,8.4582825E-5,1E0,1.6692774E-2,1E0,6.397062E-2,3E0,1E0,1.7E1,3.9E1,1E0,1E0,2E0,6.1977517E-2,1E0,1E0,6.0544122E-2,2.0620402E-2,5E0,-1.0353085E-1,1E0,1.7877404E-2,-1.3573122E-3,1.0376091E-1,7.6332696E-2,-2.0568693E-2,-1.6045542E-2,1.1782672E-1,-4.801872E-2,8.510095E-2,-6.1932307E-2,2.1924682E-2,6.693696E-2,-1.8322306E-3,-3.242947E-2,-9.969782E-2,5.7259994E-3,-8.2630254E-2,-7.610637E-2,-2.8599355E-2,-4.1134413E-2,-9.035266E-2,-7.2011374E-2,-5.0069685E-3],"split_indices":[6,7,23,35,12,26,28,16,16,16,17,9,32,0,0,12,4,31,28,20,17,0,0,11,0,19,0,27,5,17,17,4,32,20,0,28,8,0,0,31,0,20,0,0,0,0,0,0,0,0,0,0,0,0,0,0,0,0,0,0,0,0,0,0,0],"split_type":[0,0,0,0,0,0,0,0,0,0,0,0,0,0,0,0,0,0,0,0,0,0,0,0,0,0,0,0,0,0,0,0,0,0,0,0,0,0,0,0,0,0,0,0,0,0,0,0,0,0,0,0,0,0,0,0,0,0,0,0,0,0,0,0,0],"sum_hessian":[7.360145E2,6.5632465E2,7.9689926E1,5.7840967E2,7.791494E1,5.9151188E1,2.0538742E1,4.413655E2,1.3704416E2,6.981639E1,8.098551E0,4.44727E1,1.4678491E1,1.11309185E1,9.407824E0,3.3597546E2,1.0539006E2,7.537248E1,6.1671677E1,6.255996E1,7.2564306E0,4.5851183E0,3.513432E0,3.992329E1,4.549406E0,1.1330474E1,3.3480163E0,2.9212164E2,4.3853813E1,7.6680885E1,2.8709177E1,5.5587273E1,1.9785208E1,5.7681423E1,3.990255E0,1.9446468E1,4.3113487E1,3.3544254E0,3.9020052E0,3.539163E1,4.5316606E0,6.3424754E0,4.987999E0,2.7917453E2,1.29471E1,3.8502884E1,5.3509293E0,5.275203E0,7.1405685E1,1.979912E1,8.910057E0,2.2485817E1,3.3101456E1,1.4293863E1,5.4913445E0,2.4986557E1,3.2694866E1,9.881834E0,9.564635E0,3.7037376E1,6.076113E0,3.1611115E1,3.7805157E0,3.030549E0,3.3119264E0],"tree_param":{"num_deleted":"0","num_feature":"36","num_nodes":"65","size_leaf_vector":"1"}},{"base_weights":[1.0853732E-2,7.147925E-2,-4.6383366E-1,1.5616277E-1,-2.5584713E-1,-3.012106E-1,-9.291593E-1,-1.2648461E-3,7.209424E-1,3.2081366E-2,-6.1430126E-1,-4.1822714E-1,8.2766324E-2,-1.0810243E-1,-6.6137716E-2,-9.501398E-2,6.3393927E-1,9.1232884E-1,1.0600623E-1,3.1123772E-1,-1.7087764E-1,-7.1244264E-1,8.2407795E-2,-6.017224E-1,-1.4783704E-1,-4.1073885E-2,3.68373E-1,1.5536256E-3,-5.118017E-1,7.648084E-1,8.932882E-2,6.711543E-1,1.5287821E-1,-1.6406485E-1,7.2996485E-1,-1.22820914E-1,9.158313E-1,-3.2485208E-1,1.9674014E-1,-9.559936E-1,-2.1697035E-1,-9.4168805E-2,-4.0023866E-1,2.6528148E-2,-3.1596642E-2,-1.8295677E-5,7.780435E-2,7.517138E-3,-4.102808E-2,-4.0353447E-2,-7.3553585E-2,8.378145E-2,7.745325E-3,-2.8269216E-2,4.361756E-2,4.3478947E-2,1.1077187E-1,2.9166896E-2,-1.0407304E-1,-1.2480748E-2,1.4723395E-1,-3.481623E-2,5.7359446E-2,1.6000684E-2,1.2246462E-1,-5.173252E-2,-1.0965106E-3,-2.7884E-2,7.5131506E-2,-4.769939E-2,-1.5211692E-1,7.446768E-2,-1.077617E-1,-6.529465E-2,-1.7941348E-2],"categories":[],"categories_nodes":[],"categories_segments":[],"categories_sizes":[],"default_left":[0,0,0,0,0,0,0,0,0,0,0,0,0,0,0,0,0,0,0,0,0,0,0,0,0,0,0,0,0,0,0,0,0,0,0,0,0,0,0,0,0,0,0,0,0,0,0,0,0,0,0,0,0,0,0,0,0,0,0,0,0,0,0,0,0,0,0,0,0,0,0,0,0,0,0],"id":3,"left_children":[1,3,5,7,9,11,13,15,17,19,21,23,25,-1,-1,27,29,31,33,35,37,39,-1,41,43,-1,45,47,49,51,53,55,-1,57,59,61,63,65,67,69,71,-1,73,-1,-1,-1,-1,-1,-1,-1,-1,-1,-1,-1,-1,-1,-1,-1,-1,-1,-1,-1,-1,-1,-1,-1,-1,-1,-1,-1,-1,-1,-1,-1,-1],"loss_changes":[2.1206116E1,1.8148129E1,6.0355225E0,4.620149E1,1.3916944E1,2.8798327E0,1.4446831E-1,2.4318E1,1.3234039E1,4.337707E0,9.06114E0,2.3272133E0,2.3536425E0,0E0,0E0,1.4322442E1,3.6748562E0,1.1797394E1,4.840964E0,8.559912E0,2.57895E0,6.638529E0,0E0,1.5879431E0,1.5433422E0,0E0,1.5740957E0,8.819948E0,1.3246574E0,2.0533352E0,1.582349E0,6.0997467E0,0E0,8.441856E0,5.670755E0,3.2785373E0,2.971506E0,1.9090598E0,3.8331606E0,9.491787E0,1.7346909E1,0E0,9.849801E-1,0E0,0E0,0E0,0E0,0E0,0E0,0E0,0E0,0E0,0E0,0E0,0E0,0E0,0E0,0E0,0E0,0E0,0E0,0E0,0E0,0E0,0E0,0E0,0E0,0E0,0E0,0E0,0E0,0E0,0E0,0E0,0E0],"parents":[2147483647,0,0,1,1,2,2,3,3,4,4,5,5,6,6,7,7,8,8,9,9,10,10,11,11,12,12,15,15,16,16,17,17,18,18,19,19,20,20,21,21,23,23,24,24,26,26,27,27,28,28,29,29,30,30,31,31,33,33,34,34,35,35,36,36,37,37,38,38,39,39,40,40,42,42],"right_children":[2,4,6,8,10,12,14,16,18,20,22,24,26,-1,-1,28,30,32,34,36,38,40,-1,42,44,-1,46,48,50,52,54,56,-1,58,60,62,64,66,68,70,72,-1,74,-1,-1,-1,-1,-1,-1,-1,-1,-1,-1,-1,-1,-1,-1,-1,-1,-1,-1,-1,-1,-1,-1,-1,-1,-1,-1,-1,-1,-1,-1,-1,-1],"split_conditions":[1E0,8E-1,1E0,1E0,1E0,5E0,1E0,1E0,1E0,2.2E1,1E0,1E0,6.25E-1,-1.0810243E-1,-6.6137716E-2,1E0,3.8E1,1.1E1,4.6E1,1.2E1,3E0,1E0,8.2407795E-2,6.923077E-1,5.4545456E-1,-4.1073885E-2,1E0,1E0,1E0,1E0,4.4E1,2E0,1.5287821E-1,6E0,1E0,4E0,5.4545456E-1,6E0,3.3E1,5E0,2E0,-9.4168805E-2,2.2E1,2.6528148E-2,-3.1596642E-2,-1.8295677E-5,7.780435E-2,7.517138E-3,-4.102808E-2,-4.0353447E-2,-7.3553585E-2,8.378145E-2,7.745325E-3,-2.8269216E-2,4.361756E-2,4.3478947E-2,1.1077187E-1,2.9166896E-2,-1.0407304E-1,-1.2480748E-2,1.4723395E-1,-3.481623E-2,5.7359446E-2,1.6000684E-2,1.2246462E-1,-5.173252E-2,-1.0965106E-3,-2.7884E-2,7.5131506E-2,-4.769939E-2,-1.5211692E-1,7.446768E-2,-1.077617E-1,-6.529465E-2,-1.7941348E-2],"split_indices":[6,35,23,16,16,26,28,12,4,17,28,28,33,0,0,7,17,31,17,17,31,18,0,33,33,0,19,15,18,5,17,20,0,26,21,31,33,26,17,26,20,0,17,0,0,0,0,0,0,0,0,0,0,0,0,0,0,0,0,0,0,0,0,0,0,0,0,0,0,0,0,0,0,0,0],"split_type":[0,0,0,0,0,0,0,0,0,0,0,0,0,0,0,0,0,0,0,0,0,0,0,0,0,0,0,0,0,0,0,0,0,0,0,0,0,0,0,0,0,0,0,0,0,0,0,0,0,0,0,0,0,0,0,0,0,0,0,0,0,0,0,0,0,0,0,0,0,0,0,0,0,0,0],"sum_hessian":[7.347299E2,6.5227313E2,8.245677E1,5.1862195E2,1.336512E2,6.2323223E1,2.013355E1,4.0635236E2,1.1226958E2,7.462174E1,5.902946E1,4.7698086E1,1.4625136E1,1.0909555E1,9.223996E0,3.5483328E2,5.1519066E1,8.5252754E1,2.7016817E1,3.1189375E1,4.343237E1,5.5731556E1,3.2979038E0,2.7684872E1,2.0013214E1,5.200671E0,9.424465E0,2.8889423E2,6.593906E1,4.1211643E1,1.0307425E1,6.2780087E1,2.2472673E1,1.9369904E1,7.6469126E0,1.8619003E1,1.2570371E1,3.0693089E1,1.2739282E1,3.6741634E1,1.8989923E1,8.934996E0,1.8749878E1,5.6217957E0,1.43914175E1,5.4873652E0,3.9371E0,2.4577756E2,4.3116673E1,4.6325367E1,1.961369E1,3.7056828E1,4.1548142E0,5.062477E0,5.2449474E0,4.202359E1,2.0756495E1,1.3183678E1,6.1862264E0,3.9410532E0,3.7058594E0,1.4445041E1,4.173963E0,4.0865855E0,8.483786E0,1.8624537E1,1.2068553E1,7.1257434E0,5.613538E0,2.0885044E1,1.585659E1,9.032344E0,9.95758E0,7.8311815E0,1.0918695E1],"tree_param":{"num_deleted":"0","num_feature":"36","num_nodes":"75","size_leaf_vector":"1"}},{"base_weights":[-3.4009133E-2,-8.475508E-2,4.525869E-1,-3.161735E-2,-4.969013E-1,-6.292709E-2,6.2714326E-1,6.1325073E-2,-3.8988125E-1,-5.7776487E-1,1.3434345E-1,7.849306E-1,1.3515618E-1,-9.735444E-2,5.707874E-1,-5.336107E-1,2.7055892E-1,-3.2426566E-1,-6.1683977E-1,5.3054858E-2,-3.935768E-2,5.5797714E-1,1.1051971E0,4.7533806E-2,-1.8427927E-2,-8.202953E-3,-4.804587E-1,3.897586E-1,1.0242429E0,-2.9684278E-1,-7.0986867E-1,-1.0400913E-1,7.546486E-2,-8.480247E-2,5.027232E-3,-6.7645544E-1,-1.8562593E-1,8.111864E-1,4.055953E-1,5.4740723E-2,1.3393255E0,1.4993207E-1,-3.0059695E-2,5.2064345E-3,-4.7641486E-2,-6.401444E-2,-1.4998463E-2,4.8132613E-2,-4.683364E-2,1.2607849E-1,-8.228144E-2,-7.475703E-2,-1.0311556E-2,-9.1866225E-2,-3.2061923E-2,1.937932E-2,-6.641119E-2,2.7859485E-2,-2.4815774E-2,-1.0144585E-1,-5.7307154E-2,2.2927584E-2,-6.4168096E-2,1.1189681E-1,2.9866984E-2,-5.2756112E-2,6.744394E-2,6.4249285E-2,1.5092592E-1,-2.3339221E-2,5.403577E-2],"categories":[],"categories_nodes":[],"categories_segments":[],"categories_sizes":[],"default_left":[0,0,0,0,0,0,0,0,0,0,0,0,0,0,0,0,0,0,0,0,0,0,0,0,0,0,0,0,0,0,0,0,0,0,0,0,0,0,0,0,0,0,0,0,0,0,0,0,0,0,0,0,0,0,0,0,0,0,0,0,0,0,0,0,0,0,0,0,0,0,0],"id":4,"left_children":[1,3,5,7,9,-1,11,13,15,17,19,21,23,25,27,29,31,33,35,-1,-1,37,39,-1,41,43,45,47,49,51,53,55,-1,-1,57,59,61,63,65,-1,67,69,-1,-1,-1,-1,-1,-1,-1,-1,-1,-1,-1,-1,-1,-1,-1,-1,-1,-1,-1,-1,-1,-1,-1,-1,-1,-1,-1,-1,-1],"loss_changes":[1.8169815E1,1.4565197E1,1.3519846E1,1.969672E1,3.9553509E0,0E0,4.578621E0,3.8049072E1,1.1709543E1,4.6889114E-1,2.182872E0,2.689415E0,8.3751214E-1,1.2264787E1,8.775188E0,3.9790306E0,4.147266E0,1.9233841E0,1.3500786E0,0E0,0E0,7.760525E-1,1.5972595E0,0E0,6.0996747E-1,8.276276E0,3.4816332E0,6.6283064E0,1.4700912E1,3.8140337E0,4.3244743E0,2.3854234E0,0E0,0E0,6.1119306E-1,1.1676655E0,1.7271317E0,1.2054014E0,5.3431654E0,0E0,4.3681335E-1,1.3405547E0,0E0,0E0,0E0,0E0,0E0,0E0,0E0,0E0,0E0,0E0,0E0,0E0,0E0,0E0,0E0,0E0,0E0,0E0,0E0,0E0,0E0,0E0,0E0,0E0,0E0,0E0,0E0,0E0,0E0],"parents":[2147483647,0,0,1,1,2,2,3,3,4,4,6,6,7,7,8,8,9,9,10,10,11,11,12,12,13,13,14,14,15,15,16,16,17,17,18,18,21,21,22,22,24,24,25,25,26,26,27,27,28,28,29,29,30,30,31,31,34,34,35,35,36,36,37,37,38,38,40,40,41,41],"right_children":[2,4,6,8,10,-1,12,14,16,18,20,22,24,26,28,30,32,34,36,-1,-1,38,40,-1,42,44,46,48,50,52,54,56,-1,-1,58,60,62,64,66,-1,68,70,-1,-1,-1,-1,-1,-1,-1,-1,-1,-1,-1,-1,-1,-1,-1,-1,-1,-1,-1,-1,-1,-1,-1,-1,-1,-1,-1,-1,-1],"split_conditions":[1E0,1E0,1.9E1,8E-1,1E0,-6.292709E-2,3.8E1,1E0,1E0,2.857143E-1,2.4E1,6E-1,2E0,1E0,1E1,1E0,1E0,1.4285715E-1,1E0,5.3054858E-2,-3.935768E-2,2.4E1,1E0,4.7533806E-2,5.3E1,1E0,1E0,4E0,1E0,4.2857143E-1,1E0,1E0,7.546486E-2,-8.480247E-2,2.4E1,5.4545456E-1,3.2E1,1E0,2.8E1,5.4740723E-2,5.4545456E-1,4.4E1,-3.0059695E-2,5.2064345E-3,-4.7641486E-2,-6.401444E-2,-1.4998463E-2,4.8132613E-2,-4.683364E-2,1.2607849E-1,-8.228144E-2,-7.475703E-2,-1.0311556E-2,-9.1866225E-2,-3.2061923E-2,1.937932E-2,-6.641119E-2,2.7859485E-2,-2.4815774E-2,-1.0144585E-1,-5.7307154E-2,2.2927584E-2,-6.4168096E-2,1.1189681E-1,2.9866984E-2,-5.2756112E-2,6.744394E-2,6.4249285E-2,1.5092592E-1,-2.3339221E-2,5.403577E-2],"split_indices":[12,7,17,35,16,0,17,16,30,33,17,35,20,6,31,16,5,33,10,0,0,17,19,0,17,5,32,31,23,33,18,32,0,0,17,33,17,25,17,0,33,17,0,0,0,0,0,0,0,0,0,0,0,0,0,0,0,0,0,0,0,0,0,0,0,0,0,0,0,0,0],"split_type":[0,0,0,0,0,0,0,0,0,0,0,0,0,0,0,0,0,0,0,0,0,0,0,0,0,0,0,0,0,0,0,0,0,0,0,0,0,0,0,0,0,0,0,0,0,0,0,0,0,0,0,0,0,0,0,0,0,0,0,0,0,0,0,0,0,0,0,0,0,0,0],"sum_hessian":[7.332818E2,6.6477936E2,6.850245E1,5.89812E2,7.496735E1,9.155282E0,5.9347164E1,4.689768E2,1.20835236E2,6.652952E1,8.437827E0,4.4484818E1,1.4862347E1,3.5821454E2,1.1076227E2,9.939604E1,2.1439196E1,1.0127264E1,5.6402252E1,4.817389E0,3.6204383E0,2.7640146E1,1.684467E1,3.9712462E0,1.0891101E1,2.914201E2,6.679442E1,8.048895E1,3.0273317E1,4.3562523E1,5.583352E1,1.2529525E1,8.909672E0,3.3012109E0,6.8260536E0,4.9052044E1,7.3502064E0,8.760183E0,1.8879963E1,5.96697E0,1.08777E1,7.1146765E0,3.7764242E0,2.5897427E2,3.2445847E1,4.4402164E1,2.2392258E1,7.3124855E1,7.364096E0,2.7117893E1,3.1554239E0,1.2235775E1,3.1326748E1,3.5455235E1,2.0378284E1,8.607165E0,3.9223592E0,3.232721E0,3.5933325E0,9.425102E0,3.962694E1,4.1091337E0,3.241073E0,4.733994E0,4.0261893E0,4.0075274E0,1.4872437E1,3.0699322E0,7.807768E0,3.792938E0,3.3217382E0],"tree_param":{"num_deleted":"0","num_feature":"36","num_nodes":"71","size_leaf_vector":"1"}},{"base_weights":[-1.5301354E-2,3.3832792E-2,-3.992301E-1,1.02731645E-1,-2.3720759E-1,-3.154509E-1,-8.4236234E-1,5.2569155E-2,9.399442E-1,-3.4453145E-1,2.3152953E-1,-1.8016669E-1,-5.8848363E-1,-1.00336626E-1,-3.083166E-2,1.06011316E-1,-3.7990034E-1,1.3330284E-1,-2.2912847E-1,-1.6089237E-1,-6.1620265E-1,1.0086856E-1,8.9468606E-2,-2.3357874E-1,3.8610626E-2,-4.80408E-3,-7.1186505E-2,1.5757275E-1,-2.5888166E-1,-5.929838E-1,2.3487318E-1,4.7256187E-2,-9.8031946E-2,-6.3663065E-1,2.0012166E-1,-8.196863E-1,-7.6693326E-2,2.941231E-1,-3.345963E-1,-1.4906979E-1,-6.632207E-1,4.0259052E-2,7.315818E-3,-3.1143373E-3,-5.6836545E-2,-6.397243E-2,-1.0743508E-2,-4.096688E-2,4.6713483E-2,-8.6369365E-2,-1.012389E-2,8.794699E-2,-1.6624322E-2,-1.3079303E-2,-9.0277486E-2,5.1234294E-2,-3.7758954E-2,3.002382E-3,7.565188E-2,8.773222E-3,-6.974014E-2,2.1997167E-2,-2.7439598E-2,-9.411133E-2,-2.2815786E-2],"categories":[],"categories_nodes":[],"categories_segments":[],"categories_sizes":[],"default_left":[0,0,0,0,0,0,0,0,0,0,0,0,0,0,0,0,0,0,0,0,0,0,0,0,0,0,0,0,0,0,0,0,0,0,0,0,0,0,0,0,0,0,0,0,0,0,0,0,0,0,0,0,0,0,0,0,0,0,0,0,0,0,0,0,0],"id":5,"left_children":[1,3,5,7,9,11,13,15,17,19,21,23,25,-1,-1,27,29,-1,31,33,35,37,-1,39,-1,-1,-1,41,43,45,47,-1,-1,49,51,53,55,57,59,61,63,-1,-1,-1,-1,-1,-1,-1,-1,-1,-1,-1,-1,-1,-1,-1,-1,-1,-1,-1,-1,-1,-1,-1,-1],"loss_changes":[1.3822971E1,1.216119E1,2.8206806E0,2.1742275E1,6.7216396E0,2.53553E0,7.7573967E-1,1.1379482E1,1.3757744E1,5.2805347E0,2.092926E0,1.5801508E0,1.5163431E0,0E0,0E0,8.27096E0,7.2364793E0,0E0,4.795688E0,1.1410188E1,4.672905E0,1.9646105E0,0E0,1.5582192E0,0E0,0E0,0E0,7.9108143E0,3.8262084E0,8.5078907E-1,2.3861916E0,0E0,0E0,3.387271E0,9.631686E0,1.6689701E0,2.4829361E0,1.9179273E0,1.1772757E0,1.8838978E0,6.571603E-1,0E0,0E0,0E0,0E0,0E0,0E0,0E0,0E0,0E0,0E0,0E0,0E0,0E0,0E0,0E0,0E0,0E0,0E0,0E0,0E0,0E0,0E0,0E0,0E0],"parents":[2147483647,0,0,1,1,2,2,3,3,4,4,5,5,6,6,7,7,8,8,9,9,10,10,11,11,12,12,15,15,16,16,18,18,19,19,20,20,21,21,23,23,27,27,28,28,29,29,30,30,33,33,34,34,35,35,36,36,37,37,38,38,39,39,40,40],"right_children":[2,4,6,8,10,12,14,16,18,20,22,24,26,-1,-1,28,30,-1,32,34,36,38,-1,40,-1,-1,-1,42,44,46,48,-1,-1,50,52,54,56,58,60,62,64,-1,-1,-1,-1,-1,-1,-1,-1,-1,-1,-1,-1,-1,-1,-1,-1,-1,-1,-1,-1,-1,-1,-1,-1],"split_conditions":[1E0,8E-1,1E0,1.1E1,1E0,6E0,5E0,1E0,1E0,2.6E1,1E0,4E1,2E0,-1.00336626E-1,-3.083166E-2,1E0,1E0,1.3330284E-1,2E0,1.9E1,1E0,1E0,8.9468606E-2,1E0,3.8610626E-2,-4.80408E-3,-7.1186505E-2,5E0,1E0,4.3E1,5E0,4.7256187E-2,-9.8031946E-2,1E0,2.2E1,5E0,3.1E1,3.2E1,2E0,1.7E1,2E1,4.0259052E-2,7.315818E-3,-3.1143373E-3,-5.6836545E-2,-6.397243E-2,-1.0743508E-2,-4.096688E-2,4.6713483E-2,-8.6369365E-2,-1.012389E-2,8.794699E-2,-1.6624322E-2,-1.3079303E-2,-9.0277486E-2,5.1234294E-2,-3.7758954E-2,3.002382E-3,7.565188E-2,8.773222E-3,-6.974014E-2,2.1997167E-2,-2.7439598E-2,-9.411133E-2,-2.2815786E-2],"split_indices":[6,35,13,31,30,26,26,15,4,17,14,17,20,0,0,13,29,0,20,17,28,32,0,15,0,0,0,26,28,17,26,0,0,28,17,26,17,17,20,17,17,0,0,0,0,0,0,0,0,0,0,0,0,0,0,0,0,0,0,0,0,0,0,0,0],"split_type":[0,0,0,0,0,0,0,0,0,0,0,0,0,0,0,0,0,0,0,0,0,0,0,0,0,0,0,0,0,0,0,0,0,0,0,0,0,0,0,0,0,0,0,0,0,0,0,0,0,0,0,0,0,0,0,0,0,0,0,0,0,0,0,0,0],"sum_hessian":[7.3105347E2,6.489185E2,8.213493E1,5.1789087E2,1.3102763E2,7.051512E1,1.1619814E1,4.896177E2,2.8273184E1,1.0683196E2,2.4195673E1,4.826186E1,2.2253263E1,8.252925E0,3.3668888E0,4.364398E2,5.317792E1,2.1053873E1,7.2193103E0,6.4693756E1,4.2138206E1,2.1175575E1,3.0200965E0,4.4638935E1,3.6229224E0,4.394327E0,1.7858936E1,3.829018E2,5.3538002E1,3.951669E1,1.3661231E1,3.9244156E0,3.294895E0,2.758252E1,3.7111237E1,3.0220713E1,1.1917494E1,1.4891478E1,6.2840986E0,3.842738E1,6.2115574E0,9.714987E1,2.8575192E2,3.1476316E1,2.2061687E1,3.575707E1,3.7596204E0,3.4164698E0,1.0244761E1,1.8937716E1,8.644802E0,1.2511222E1,2.4600016E1,3.5297132E0,2.6691E1,3.7918403E0,8.125654E0,1.015585E1,4.7356277E0,3.2541926E0,3.0299058E0,9.550203E0,2.8877174E1,3.0806522E0,3.1309054E0],"tree_param":{"num_deleted":"0","num_feature":"36","num_nodes":"65","size_leaf_vector":"1"}},{"base_weights":[-8.912942E-3,3.888246E-2,-3.701314E-1,9.590118E-2,-3.5055292E-1,-4.4297177E-1,2.564556E-1,6.737439E-2,7.5945485E-1,-2.1535762E-1,-7.5527705E-2,-9.575077E-2,-4.988651E-1,-9.900537E-3,5.488608E-2,-2.0303938E-3,3.9236644E-1,6.7115873E-3,9.8496944E-1,-1.2882428E-1,-6.7646366E-1,1.254683E-1,-3.7077457E-2,-5.331269E-1,1.1986428E-2,-4.463699E-2,3.8874757E-1,9.8390216E-1,1.6150495E-1,1.2066938E0,7.003017E-3,-1.7604753E-1,3.8890988E-2,-3.4391474E-2,-8.155474E-2,-9.318012E-3,3.0703789E-2,-4.229633E-1,-7.642067E-1,1.0753623E-2,-1.4792097E-2,6.430978E-2,-4.1235972E-2,1.177665E-1,-3.392697E-2,-2.1068702E-2,5.1477928E-2,1.5088539E-1,5.9048563E-2,-1.2236994E-2,-6.2278904E-2,-4.7502857E-2,6.5602097E-3,-3.218676E-2,-9.069877E-2],"categories":[],"categories_nodes":[],"categories_segments":[],"categories_sizes":[],"default_left":[0,0,0,0,0,0,0,0,0,0,0,0,0,0,0,0,0,0,0,0,0,0,0,0,0,0,0,0,0,0,0,0,0,0,0,0,0,0,0,0,0,0,0,0,0,0,0,0,0,0,0,0,0,0,0],"id":6,"left_children":[1,3,5,7,9,11,13,15,17,19,-1,21,23,-1,-1,25,27,-1,29,31,33,35,-1,37,-1,39,41,43,45,47,-1,49,-1,-1,-1,-1,-1,51,53,-1,-1,-1,-1,-1,-1,-1,-1,-1,-1,-1,-1,-1,-1,-1,-1],"loss_changes":[1.2518582E1,1.4256849E1,3.980731E0,1.0539974E1,4.3252707E0,1.4324751E0,1.0373205E0,1.2125832E1,3.5195284E0,2.4219072E0,0E0,7.6522756E-1,1.451561E0,0E0,0E0,7.409002E0,1.2760216E1,0E0,3.4148388E0,1.3931439E0,1.6820526E-1,3.1818312E-1,0E0,1.2603779E0,0E0,6.321622E0,9.179428E0,7.1577854E0,9.212795E0,1.682848E0,0E0,1.1309569E0,0E0,0E0,0E0,0E0,0E0,1.1596899E0,8.9816475E-1,0E0,0E0,0E0,0E0,0E0,0E0,0E0,0E0,0E0,0E0,0E0,0E0,0E0,0E0,0E0,0E0],"parents":[2147483647,0,0,1,1,2,2,3,3,4,4,5,5,6,6,7,7,8,8,9,9,11,11,12,12,15,15,16,16,18,18,19,19,20,20,21,21,23,23,25,25,26,26,27,27,28,28,29,29,31,31,37,37,38,38],"right_children":[2,4,6,8,10,12,14,16,18,20,-1,22,24,-1,-1,26,28,-1,30,32,34,36,-1,38,-1,40,42,44,46,48,-1,50,-1,-1,-1,-1,-1,52,54,-1,-1,-1,-1,-1,-1,-1,-1,-1,-1,-1,-1,-1,-1,-1,-1],"split_conditions":[1E0,1E0,1E0,3E0,1E0,2.5E-1,1E0,8E0,1E0,1E0,-7.5527705E-2,1E0,4.1E1,-9.900537E-3,5.488608E-2,1E0,6E-1,6.7115873E-3,4E0,4E1,2.2E1,2.4E1,-3.7077457E-2,1E0,1.1986428E-2,2.5E1,1E0,1E0,1E0,5.2E1,7.003017E-3,3.4E1,3.8890988E-2,-3.4391474E-2,-8.155474E-2,-9.318012E-3,3.0703789E-2,3.3E1,3.1E1,1.0753623E-2,-1.4792097E-2,6.430978E-2,-4.1235972E-2,1.177665E-1,-3.392697E-2,-2.1068702E-2,5.1477928E-2,1.5088539E-1,5.9048563E-2,-1.2236994E-2,-6.2278904E-2,-4.7502857E-2,6.5602097E-3,-3.218676E-2,-9.069877E-2],"split_indices":[7,6,12,27,23,33,28,31,30,13,0,32,17,0,0,12,35,0,31,17,17,17,0,18,0,17,5,23,18,17,0,17,0,0,0,0,0,17,17,0,0,0,0,0,0,0,0,0,0,0,0,0,0,0,0],"split_type":[0,0,0,0,0,0,0,0,0,0,0,0,0,0,0,0,0,0,0,0,0,0,0,0,0,0,0,0,0,0,0,0,0,0,0,0,0,0,0,0,0,0,0,0,0,0,0,0,0,0,0,0,0,0,0],"sum_hessian":[7.232683E2,6.3953876E2,8.372959E1,5.5851776E2,8.1020966E1,7.527228E1,8.457315E0,5.365524E2,2.1965345E1,6.1881866E1,1.9139103E1,1.0812971E1,6.4459305E1,4.115607E0,4.341708E0,4.4295038E2,9.3602036E1,5.715657E0,1.624969E1,5.318104E1,8.700824E0,6.294055E0,4.518916E0,6.1208282E1,3.2510242E0,4.0020206E2,4.2748333E1,2.5360086E1,6.824195E1,1.2823253E1,3.426437E0,4.9340584E1,3.840458E0,3.5899584E0,5.110865E0,3.0763197E0,3.2177353E0,4.3365055E1,1.7843227E1,1.6178917E2,2.3841289E2,3.25963E1,1.0152034E1,2.2216684E1,3.1434016E0,3.3427765E1,3.4814182E1,7.632174E0,5.191078E0,4.518532E1,4.1552615E0,3.9213837E1,4.1512194E0,5.1482134E0,1.2695013E1],"tree_param":{"num_deleted":"0","num_feature":"36","num_nodes":"55","size_leaf_vector":"1"}},{"base_weights":[6.6577215E-3,-3.5947714E-2,4.2170534E-1,6.1827013E-3,-3.93158E-1,-3.615707E-1,5.433925E-1,5.30623E-2,-3.1817955E-1,-1.00846075E-1,-3.0097997E-1,1.6142422E-2,-6.463484E-2,7.1531993E-1,3.2044645E-2,1.3890964E-1,-2.1958862E-1,-2.1328488E-1,-4.9904978E-1,-1.7683299E-1,-6.8450624E-1,5.229491E-1,9.7776145E-2,2.7839482E-1,-3.474992E-2,2.4780326E-3,5.3999525E-1,-3.40719E-1,3.2552242E-1,-2.8228804E-1,2.4437083E-2,-2.0433502E-1,-6.7893964E-1,-3.8866784E-2,-8.338015E-2,-4.4967566E-2,-9.1741614E-2,8.1012493E-1,3.5345355E-1,-1.8871669E-2,4.9820304E-1,2.8662685E-2,-8.018504E-3,7.664102E-2,-4.0221303E-3,-1.5884431E-2,-6.183691E-2,4.8777353E-2,-2.1564238E-2,2.833513E-2,-4.0079296E-2,-1.858312E-3,-2.6874071E-2,-3.603103E-2,-9.343682E-2,-1.6814893E-2,3.2580256E-2,1.14567734E-1,3.0979061E-2,-3.8623195E-2,5.968347E-2,6.6041194E-2,2.0288445E-2],"categories":[],"categories_nodes":[],"categories_segments":[],"categories_sizes":[],"default_left":[0,0,0,0,0,0,0,0,0,0,0,0,0,0,0,0,0,0,0,0,0,0,0,0,0,0,0,0,0,0,0,0,0,0,0,0,0,0,0,0,0,0,0,0,0,0,0,0,0,0,0,0,0,0,0,0,0,0,0,0,0,0,0],"id":7,"left_children":[1,3,5,7,9,11,13,15,17,-1,19,-1,-1,21,23,25,27,29,31,33,35,37,-1,39,-1,41,43,45,47,49,-1,51,53,55,-1,-1,-1,57,59,-1,61,-1,-1,-1,-1,-1,-1,-1,-1,-1,-1,-1,-1,-1,-1,-1,-1,-1,-1,-1,-1,-1,-1],"loss_changes":[1.2937218E1,9.989857E0,6.6881742E0,9.058541E0,3.668374E0,1.5577718E0,5.1947594E0,1.2210773E1,1.3208337E0,0E0,2.8467565E0,0E0,0E0,1.7286892E0,1.5909334E0,2.1689022E1,8.364624E0,1.627804E0,1.2856956E0,4.357872E0,4.0208673E-1,1.0644917E0,0E0,1.1460109E0,0E0,6.9938917E0,1.3247213E1,5.0910244E0,2.145579E0,3.0199049E0,0E0,1.3395286E-1,9.861622E-1,1.9914678E0,0E0,0E0,0E0,1.2444401E0,3.6916418E0,0E0,2.1292794E-1,0E0,0E0,0E0,0E0,0E0,0E0,0E0,0E0,0E0,0E0,0E0,0E0,0E0,0E0,0E0,0E0,0E0,0E0,0E0,0E0,0E0,0E0],"parents":[2147483647,0,0,1,1,2,2,3,3,4,4,5,5,6,6,7,7,8,8,10,10,13,13,14,14,15,15,16,16,17,17,18,18,19,19,20,20,21,21,23,23,25,25,26,26,27,27,28,28,29,29,31,31,32,32,33,33,37,37,38,38,40,40],"right_children":[2,4,6,8,10,12,14,16,18,-1,20,-1,-1,22,24,26,28,30,32,34,36,38,-1,40,-1,42,44,46,48,50,-1,52,54,56,-1,-1,-1,58,60,-1,62,-1,-1,-1,-1,-1,-1,-1,-1,-1,-1,-1,-1,-1,-1,-1,-1,-1,-1,-1,-1,-1,-1],"split_conditions":[1E0,1E0,1.9E1,1E0,2E-1,6.923077E-1,3.8E1,8E-1,1E0,-1.00846075E-1,1E0,1.6142422E-2,-6.463484E-2,6E-1,6E0,1E0,1E0,1E0,2.4E1,1E0,5.4E1,2.4E1,9.7776145E-2,1E0,-3.474992E-2,3.75E-1,1E0,2.8E1,6E0,3.3333334E-1,2.4437083E-2,5.4545456E-1,6E0,5E0,-8.338015E-2,-4.4967566E-2,-9.1741614E-2,1E0,2.8E1,-1.8871669E-2,7E-1,2.8662685E-2,-8.018504E-3,7.664102E-2,-4.0221303E-3,-1.5884431E-2,-6.183691E-2,4.8777353E-2,-2.1564238E-2,2.833513E-2,-4.0079296E-2,-1.858312E-3,-2.6874071E-2,-3.603103E-2,-9.343682E-2,-1.6814893E-2,3.2580256E-2,1.14567734E-1,3.0979061E-2,-3.8623195E-2,5.968347E-2,6.6041194E-2,2.0288445E-2],"split_indices":[12,6,17,7,33,33,17,35,32,0,23,0,0,35,26,16,30,16,17,13,17,17,0,20,0,33,4,17,26,33,0,33,26,26,0,0,0,25,17,0,35,0,0,0,0,0,0,0,0,0,0,0,0,0,0,0,0,0,0,0,0,0,0],"split_type":[0,0,0,0,0,0,0,0,0,0,0,0,0,0,0,0,0,0,0,0,0,0,0,0,0,0,0,0,0,0,0,0,0,0,0,0,0,0,0,0,0,0,0,0,0,0,0,0,0,0,0,0,0,0,0,0,0,0,0,0,0,0,0],"sum_hessian":[7.2975006E2,6.6264197E2,6.7108086E1,5.936123E2,6.9029655E1,8.758709E0,5.8349373E1,5.1938306E2,7.4229256E1,7.698775E0,6.1330883E1,3.2405634E0,5.518145E0,4.336884E1,1.4980536E1,3.953827E2,1.2400034E2,4.8361496E1,2.5867762E1,4.743674E1,1.3894142E1,2.6752079E1,1.6616758E1,9.245846E0,5.7346907E0,2.957782E2,9.960449E1,1.0176243E2,2.2237913E1,4.2358124E1,6.0033717E0,1.0614252E1,1.525351E1,4.0079117E1,7.357626E0,8.37787E0,5.516272E0,8.526328E0,1.8225752E1,3.003851E0,6.241995E0,6.60992E1,2.2967902E2,7.141548E1,2.818901E1,6.243589E1,3.9326538E1,1.7184381E1,5.0535307E0,7.0961614E0,3.5261963E1,3.0644968E0,7.549755E0,7.8596973E0,7.393813E0,2.9987045E1,1.0092071E1,4.3315334E0,4.194794E0,4.3668995E0,1.3858852E1,3.2310278E0,3.0109668E0],"tree_param":{"num_deleted":"0","num_feature":"36","num_nodes":"63","size_leaf_vector":"1"}},{"base_weights":[2.7375014E-3,-1.0429916E-2,1.0683913E0,-4.8555244E-2,3.4139925E-1,1.385517E-1,3.523996E-2,-3.6050703E-2,-1.18031584E-1,4.5570895E-1,-1.983295E-1,3.627238E-3,-3.588407E-1,2.3621638E-1,6.537031E-1,-6.1680424E-1,4.1022073E-2,5.2850824E-2,-3.3836457E-1,-1.8641548E-1,-6.612706E-1,9.0185106E-2,7.210456E-2,3.8467538E-1,9.376431E-1,-2.83289E-2,-7.7011436E-2,1.3847576E-2,-2.2780156E-2,-2.7296696E-2,-8.0747865E-2,-3.2024782E-2,4.485863E-2,-2.4376508E-2,-7.682571E-2,-2.1590473E-2,3.2170128E-2,9.796878E-2,-1.4045221E-2,2.9338187E-2,1.08933665E-1],"categories":[],"categories_nodes":[],"categories_segments":[],"categories_sizes":[],"default_left":[0,0,0,0,0,0,0,0,0,0,0,0,0,0,0,0,0,0,0,0,0,0,0,0,0,0,0,0,0,0,0,0,0,0,0,0,0,0,0,0,0],"id":8,"left_children":[1,3,5,7,9,-1,-1,11,-1,13,15,17,19,21,23,25,-1,27,29,31,33,-1,35,37,39,-1,-1,-1,-1,-1,-1,-1,-1,-1,-1,-1,-1,-1,-1,-1,-1],"loss_changes":[1.0170094E1,9.622634E0,1.5203638E0,9.113916E0,4.4178047E0,0E0,0E0,8.210529E0,0E0,2.3742123E0,3.5523472E0,9.643422E0,3.536046E0,3.1203995E0,1.932847E0,1.9477701E-1,0E0,1.2064042E1,1.9908895E0,4.0601716E0,9.3335533E-1,0E0,1.8292096E0,5.4846725E0,1.0400267E0,0E0,0E0,0E0,0E0,0E0,0E0,0E0,0E0,0E0,0E0,0E0,0E0,0E0,0E0,0E0,0E0],"parents":[2147483647,0,0,1,1,2,2,3,3,4,4,7,7,9,9,10,10,11,11,12,12,13,13,14,14,15,15,17,17,18,18,19,19,20,20,22,22,23,23,24,24],"right_children":[2,4,6,8,10,-1,-1,12,-1,14,16,18,20,22,24,26,-1,28,30,32,34,-1,36,38,40,-1,-1,-1,-1,-1,-1,-1,-1,-1,-1,-1,-1,-1,-1,-1,-1],"split_conditions":[1E1,1E0,2E0,8E0,1E0,1.385517E-1,3.523996E-2,1E0,-1.18031584E-1,1E0,1E0,1E0,1E0,2E-1,6E-1,7E-1,4.1022073E-2,8E-1,1E0,5E0,2E0,9.0185106E-2,1E0,1E0,5.4545456E-1,-2.83289E-2,-7.7011436E-2,1.3847576E-2,-2.2780156E-2,-2.7296696E-2,-8.0747865E-2,-3.2024782E-2,4.485863E-2,-2.4376508E-2,-7.682571E-2,-2.1590473E-2,3.2170128E-2,9.796878E-2,-1.4045221E-2,2.9338187E-2,1.08933665E-1],"split_indices":[26,12,18,26,5,0,0,6,0,19,20,7,19,33,35,32,0,35,9,26,20,0,24,20,33,0,0,0,0,0,0,0,0,0,0,0,0,0,0,0,0],"split_type":[0,0,0,0,0,0,0,0,0,0,0,0,0,0,0,0,0,0,0,0,0,0,0,0,0,0,0,0,0,0,0,0,0,0,0,0,0,0,0,0,0],"sum_hessian":[7.229892E2,7.1514294E2,7.846228E0,6.4600214E2,6.914085E1,4.789686E0,3.0565414E0,6.399632E2,6.0389395E0,5.7185207E1,1.1955642E1,5.707894E2,6.917372E1,2.8160292E1,2.9024916E1,7.0761223E0,4.8795195E0,4.9971054E2,7.107891E1,4.508543E1,2.4088295E1,4.6805835E0,2.3479708E1,1.6112965E1,1.2911951E1,3.1252277E0,3.9508948E0,3.8328098E2,1.16429565E2,6.3770725E1,7.308183E0,3.764672E1,7.4387097E0,5.5823026E0,1.8505993E1,1.0963698E1,1.2516009E1,7.148037E0,8.964929E0,3.019939E0,9.892012E0],"tree_param":{"num_deleted":"0","num_feature":"36","num_nodes":"41","size_leaf_vector":"1"}},{"base_weights":[7.054906E-3,4.2724993E-2,-3.084033E-1,8.592826E-2,-2.954999E-1,-4.5626086E-1,4.1295975E-1,1.6865702E-1,-1.6093583E-1,-3.768431E-1,2.3444562E-1,-5.6639975E-1,5.570292E-2,1.23650525E-2,8.594478E-2,5.9522595E-2,6.257206E-1,-2.561894E-1,2.620131E-1,-4.416424E-1,2.9414797E-2,5.0663542E-2,-2.7272334E-2,-6.8409497E-1,2.1230897E-2,3.9328985E-2,-3.9162975E-2,-8.59807E-2,2.2213246E-1,7.8169847E-1,-2.8773442E-1,-3.4209082E-1,1.8311438E-1,3.86204E-1,-3.530593E-2,-5.1546586E-1,-6.330148E-2,3.6269903E-2,-3.792855E-2,-7.5140506E-1,1.2198604E-2,2.7011279E-2,-2.9329825E-2,-1.8562198E-2,1.0504356E-2,1.7779745E-2,1.0610973E-1,8.508841E-2,-1.3381363E-3,-8.601274E-2,7.9118624E-2,-7.695136E-3,-5.9936244E-2,5.6223094E-2,-7.890936E-2,8.205628E-2,2.138368E-2,-3.750528E-2,-6.855257E-2,2.590825E-2,-4.3995406E-2,-3.613354E-2,-9.647723E-2],"categories":[],"categories_nodes":[],"categories_segments":[],"categories_sizes":[],"default_left":[0,0,0,0,0,0,0,0,0,0,0,0,0,0,0,0,0,0,0,0,0,0,0,0,0,0,0,0,0,0,0,0,0,0,0,0,0,0,0,0,0,0,0,0,0,0,0,0,0,0,0,0,0,0,0,0,0,0,0,0,0,0,0],"id":9,"left_children":[1,3,5,7,9,11,13,15,17,19,21,23,25,-1,-1,27,29,31,33,35,37,-1,-1,39,41,-1,-1,43,45,47,49,51,53,55,-1,57,59,-1,-1,61,-1,-1,-1,-1,-1,-1,-1,-1,-1,-1,-1,-1,-1,-1,-1,-1,-1,-1,-1,-1,-1,-1,-1],"loss_changes":[8.072132E0,9.440456E0,7.961517E0,1.1711288E1,3.244052E0,3.4687014E0,1.5628686E0,2.136186E1,5.873101E0,1.6937962E0,1.5680277E0,3.4901543E0,1.9212382E0,0E0,0E0,8.239044E0,1.1991451E1,4.520462E0,2.1976197E0,1.5070944E0,1.4616332E0,0E0,0E0,2.3649597E0,8.1158566E-1,0E0,0E0,3.5231261E0,5.924143E0,3.9064178E0,8.570533E0,6.717654E0,7.8050485E0,1.5412154E0,0E0,8.40991E-1,1.3453043E0,0E0,0E0,2.8813953E0,0E0,0E0,0E0,0E0,0E0,0E0,0E0,0E0,0E0,0E0,0E0,0E0,0E0,0E0,0E0,0E0,0E0,0E0,0E0,0E0,0E0,0E0,0E0],"parents":[2147483647,0,0,1,1,2,2,3,3,4,4,5,5,6,6,7,7,8,8,9,9,10,10,11,11,12,12,15,15,16,16,17,17,18,18,19,19,20,20,23,23,24,24,27,27,28,28,29,29,30,30,31,31,32,32,33,33,35,35,36,36,39,39],"right_children":[2,4,6,8,10,12,14,16,18,20,22,24,26,-1,-1,28,30,32,34,36,38,-1,-1,40,42,-1,-1,44,46,48,50,52,54,56,-1,58,60,-1,-1,62,-1,-1,-1,-1,-1,-1,-1,-1,-1,-1,-1,-1,-1,-1,-1,-1,-1,-1,-1,-1,-1,-1,-1],"split_conditions":[1E0,1E0,1E0,1E0,1E0,1E0,1E0,1E0,1E0,1E0,1E0,1E0,1E0,1.23650525E-2,8.594478E-2,6E-1,1E0,3.9E1,1E0,1E0,2.4E1,5.0663542E-2,-2.7272334E-2,1E0,1E0,3.9328985E-2,-3.9162975E-2,1E0,7E0,1E0,6E0,5E0,5.8E1,2.2E1,-3.530593E-2,1E0,1E0,3.6269903E-2,-3.792855E-2,2.3E1,1.2198604E-2,2.7011279E-2,-2.9329825E-2,-1.8562198E-2,1.0504356E-2,1.7779745E-2,1.0610973E-1,8.508841E-2,-1.3381363E-3,-8.601274E-2,7.9118624E-2,-7.695136E-3,-5.9936244E-2,5.6223094E-2,-7.890936E-2,8.205628E-2,2.138368E-2,-3.750528E-2,-6.855257E-2,2.590825E-2,-4.3995406E-2,-3.613354E-2,-9.647723E-2],"split_indices":[15,7,25,4,12,4,29,16,28,16,29,3,28,0,0,35,30,17,11,11,17,0,0,23,28,0,0,24,26,6,26,26,17,17,0,28,25,0,0,17,0,0,0,0,0,0,0,0,0,0,0,0,0,0,0,0,0,0,0,0,0,0,0],"split_type":[0,0,0,0,0,0,0,0,0,0,0,0,0,0,0,0,0,0,0,0,0,0,0,0,0,0,0,0,0,0,0,0,0,0,0,0,0,0,0,0,0,0,0,0,0,0,0,0,0,0,0,0,0,0,0,0,0,0,0,0,0,0,0],"sum_hessian":[7.1519745E2,6.433194E2,7.187806E1,5.711139E2,7.220548E1,5.995633E1,1.1921727E1,4.2799994E2,1.4311397E2,6.284767E1,9.357811E0,4.9253983E1,1.0702349E1,8.009064E0,3.9126637E0,3.4641553E2,8.158443E1,1.1712923E2,2.5984737E1,5.412714E1,8.720533E0,6.0902953E0,3.267516E0,4.089838E1,8.355599E0,6.1682153E0,4.5341334E0,1.8307303E2,1.6334248E2,6.980846E1,1.17759695E1,9.815692E1,1.8972303E1,2.192908E1,4.0556583E0,4.4986706E1,9.140433E0,4.865446E0,3.855087E0,3.7809044E1,3.0893366E0,4.7434216E0,3.6121786E0,1.20333466E2,6.2739563E1,1.5629501E2,7.0474696E0,6.415563E1,5.6528316E0,7.8265753E0,3.9493945E0,4.8979084E1,4.917784E1,1.3952978E1,5.0193253E0,5.1615696E0,1.676751E1,2.6396963E1,1.8589743E1,5.0932064E0,4.0472264E0,1.4321154E1,2.3487892E1],"tree_param":{"num_deleted":"0","num_feature":"36","num_nodes":"63","size_leaf_vector":"1"}},{"base_weights":[-1.8787669E-2,-5.51556E-2,3.39091E-1,-1.6344955E-2,-3.7272325E-1,7.317432E-2,6.400094E-1,-6.026059E-2,2.7136296E-1,-3.8272265E-2,-4.325036E-1,-2.5317797E-1,4.752159E-1,8.277073E-1,2.9017252E-1,-8.381873E-2,4.6613124E-1,3.613243E-1,-8.507895E-2,-5.71716E-2,3.4788784E-2,-5.0875604E-1,1.2496206E-1,3.536528E-2,-5.227127E-1,6.449407E-1,5.3116293E-3,3.7370708E-2,9.5801324E-1,4.8739052E-1,-1.489227E-2,4.0777538E-2,-1.7389162E-1,-6.0961124E-2,6.989376E-1,4.130527E-2,6.8193763E-1,-7.534914E-1,-4.259521E-1,6.6725425E-2,-3.5780236E-2,-7.864199E-2,8.785054E-3,9.859146E-2,2.557846E-2,4.6369407E-2,1.0953027E-1,6.580583E-2,1.2997101E-2,-2.4623329E-2,3.0307522E-2,-1.1946785E-2,-5.3941317E-2,1.1910981E-1,-2.068125E-2,8.776304E-2,-7.423541E-3,8.697831E-2,-6.03738E-2,-3.9810892E-2,-1.1423659E-1,-6.9161125E-2,-2.771053E-2],"categories":[],"categories_nodes":[],"categories_segments":[],"categories_sizes":[],"default_left":[0,0,0,0,0,0,0,0,0,0,0,0,0,0,0,0,0,0,0,0,0,0,0,0,0,0,0,0,0,0,0,0,0,0,0,0,0,0,0,0,0,0,0,0,0,0,0,0,0,0,0,0,0,0,0,0,0,0,0,0,0,0,0],"id":10,"left_children":[1,3,5,7,9,11,13,15,17,19,21,23,25,27,29,31,33,35,-1,-1,-1,37,39,-1,41,43,-1,-1,45,47,-1,49,51,-1,53,55,57,59,61,-1,-1,-1,-1,-1,-1,-1,-1,-1,-1,-1,-1,-1,-1,-1,-1,-1,-1,-1,-1,-1,-1,-1,-1],"loss_changes":[9.223015E0,7.9166102E0,5.1844993E0,7.266961E0,1.3821716E0,4.8221927E0,1.7652159E0,6.223126E0,7.9973392E0,2.6101534E0,2.5823154E0,3.5267668E0,1.1408997E0,7.859049E-1,1.1294196E0,5.373437E0,5.8141317E0,7.2795486E0,0E0,0E0,0E0,7.3932934E-1,2.3154619E0,0E0,2.4120276E0,1.2883048E0,0E0,0E0,4.683237E-1,4.4246006E-1,0E0,1.5239776E1,5.4603205E0,0E0,8.338287E0,3.612358E0,9.102119E0,1.1934505E0,1.4451799E0,0E0,0E0,0E0,0E0,0E0,0E0,0E0,0E0,0E0,0E0,0E0,0E0,0E0,0E0,0E0,0E0,0E0,0E0,0E0,0E0,0E0,0E0,0E0,0E0],"parents":[2147483647,0,0,1,1,2,2,3,3,4,4,5,5,6,6,7,7,8,8,9,9,10,10,11,11,12,12,13,13,14,14,15,15,16,16,17,17,21,21,22,22,24,24,25,25,28,28,29,29,31,31,32,32,34,34,35,35,36,36,37,37,38,38],"right_children":[2,4,6,8,10,12,14,16,18,20,22,24,26,28,30,32,34,36,-1,-1,-1,38,40,-1,42,44,-1,-1,46,48,-1,50,52,-1,54,56,58,60,62,-1,-1,-1,-1,-1,-1,-1,-1,-1,-1,-1,-1,-1,-1,-1,-1,-1,-1,-1,-1,-1,-1,-1,-1],"split_conditions":[1E0,1E0,1E0,9E0,2.5E-1,1E0,3.1E1,3E0,1E0,1.4285715E-1,1E0,5E-1,3.8E1,7E-1,1E0,2.5E1,3.7E1,6E0,-8.507895E-2,-5.71716E-2,3.4788784E-2,6.923077E-1,2.4E1,3.536528E-2,3.9E1,1E0,5.3116293E-3,3.7370708E-2,5E0,4E0,-1.489227E-2,2E1,1E0,-6.0961124E-2,6.1E1,4E0,8E0,2E0,7E-1,6.6725425E-2,-3.5780236E-2,-7.864199E-2,8.785054E-3,9.859146E-2,2.557846E-2,4.6369407E-2,1.0953027E-1,6.580583E-2,1.2997101E-2,-2.4623329E-2,3.0307522E-2,-1.1946785E-2,-5.3941317E-2,1.1910981E-1,-2.068125E-2,8.776304E-2,-7.423541E-3,8.697831E-2,-6.03738E-2,-3.9810892E-2,-1.1423659E-1,-6.9161125E-2,-2.771053E-2],"split_indices":[12,7,19,31,33,24,17,27,23,33,16,33,17,32,29,17,17,26,0,0,0,33,17,0,17,28,0,0,26,31,0,17,6,0,17,26,26,31,32,0,0,0,0,0,0,0,0,0,0,0,0,0,0,0,0,0,0,0,0,0,0,0,0],"split_type":[0,0,0,0,0,0,0,0,0,0,0,0,0,0,0,0,0,0,0,0,0,0,0,0,0,0,0,0,0,0,0,0,0,0,0,0,0,0,0,0,0,0,0,0,0,0,0,0,0,0,0,0,0,0,0,0,0,0,0,0,0,0,0],"sum_hessian":[7.061913E2,6.418153E2,6.437593E1,5.7285675E2,6.895862E1,3.483552E1,2.9540411E1,4.9768137E2,7.517536E1,1.0705448E1,5.825317E1,1.9432058E1,1.5403463E1,1.8336405E1,1.1204006E1,4.77167E2,2.051437E1,7.022364E1,4.9517193E0,4.2936544E0,6.411794E0,5.1320694E1,6.932474E0,5.8805337E0,1.3551525E1,1.060949E1,4.793973E0,4.9517803E0,1.33846245E1,7.655555E0,3.548452E0,2.0044379E2,2.767232E2,3.3617933E0,1.7152576E1,3.570933E1,3.4514305E1,1.0926524E1,4.039417E1,3.0849636E0,3.8475108E0,9.262816E0,4.288708E0,4.83748E0,5.7720103E0,3.860858E0,9.5237665E0,4.6121273E0,3.0434272E0,9.57422E1,1.04701584E2,2.4201552E2,3.4707684E1,1.0909567E1,6.243009E0,3.533892E0,3.217544E1,3.0396645E1,4.117663E0,6.76652E0,4.160004E0,1.31959E1,2.719827E1],"tree_param":{"num_deleted":"0","num_feature":"36","num_nodes":"63","size_leaf_vector":"1"}},{"base_weights":[-1.9111403E-3,-2.0674871E-2,5.0011146E-1,-2.9163925E-2,1.1953063E-1,6.7581165E-1,-1.7632576E-2,-1.9567158E-2,-1.1803456E-1,9.7310275E-1,-5.8105025E-3,-4.8996955E-2,2.6152E-1,1.1242708E-1,5.5588353E-2,-7.258578E-2,2.7001932E-1,-1.2610535E-1,4.4344494E-1,-1.0172927E-2,1.7095499E-2,1.1792021E-1,-3.346996E-2,-7.092492E-2,1.4409143E-2,7.518132E-2,3.4088846E-2],"categories":[],"categories_nodes":[],"categories_segments":[],"categories_sizes":[],"default_left":[0,0,0,0,0,0,0,0,0,0,0,0,0,0,0,0,0,0,0,0,0,0,0,0,0,0,0],"id":11,"left_children":[1,3,5,7,-1,9,-1,11,-1,13,-1,15,17,-1,-1,19,21,23,25,-1,-1,-1,-1,-1,-1,-1,-1],"loss_changes":[6.701416E0,7.1128826E0,3.165557E0,7.51038E0,0E0,4.5411777E0,0E0,5.6155725E0,0E0,3.0121136E-1,0E0,4.6396275E0,4.59373E0,0E0,0E0,4.0804787E0,2.3751513E1,3.463478E0,1.1357336E0,0E0,0E0,0E0,0E0,0E0,0E0,0E0,0E0],"parents":[2147483647,0,0,1,1,2,2,3,3,5,5,7,7,9,9,11,11,12,12,15,15,16,16,17,17,18,18],"right_children":[2,4,6,8,-1,10,-1,12,-1,14,-1,16,18,-1,-1,20,22,24,26,-1,-1,-1,-1,-1,-1,-1,-1],"split_conditions":[3E0,1E1,4E0,8E0,1.1953063E-1,1E0,-1.7632576E-2,1E0,-1.1803456E-1,2E0,-5.8105025E-3,1.1E1,1E0,1.1242708E-1,5.5588353E-2,1E0,1E0,4E0,5E0,-1.0172927E-2,1.7095499E-2,1.1792021E-1,-3.346996E-2,-7.092492E-2,1.4409143E-2,7.518132E-2,3.4088846E-2],"split_indices":[27,26,31,26,0,16,0,12,0,20,0,31,21,0,0,10,4,26,26,0,0,0,0,0,0,0,0],"split_type":[0,0,0,0,0,0,0,0,0,0,0,0,0,0,0,0,0,0,0,0,0,0,0,0,0,0,0],"sum_hessian":[7.0931915E2,6.846869E2,2.4632225E1,6.809093E2,3.7775733E0,1.9554098E1,5.0781274E0,6.7628845E2,4.6208467E0,1.368482E1,5.8692784E0,6.1293945E2,6.334901E1,8.8012495E0,4.8835707E0,5.7145703E2,4.1482418E1,2.0332857E1,4.3016155E1,5.1090186E2,6.055518E1,1.6190432E1,2.5291988E1,5.923567E0,1.440929E1,9.155762E0,3.3860394E1],"tree_param":{"num_deleted":"0","num_feature":"36","num_nodes":"27","size_leaf_vector":"1"}},{"base_weights":[1.2343874E-3,3.943423E-2,-3.0109483E-1,2.914928E-3,4.3015867E-1,-6.2384915E-2,-4.4113272E-1,-6.611779E-2,1.831163E-1,-5.880794E-2,5.102148E-1,-3.3525494E-1,3.3522198E-1,-5.3848726E-1,2.2537911E-1,-1.1827832E-1,2.8121784E-1,6.368762E-1,-2.6890677E-1,6.799425E-1,-5.630398E-2,-8.959244E-2,-1.5799682E-1,8.4070325E-2,-2.8416395E-2,-4.0607467E-1,-7.4385476E-1,-5.4059247E-3,4.4291895E-2,-1.4412272E-1,5.198298E-1,5.7790554E-1,-2.7468426E-3,7.378175E-1,5.7250825E-3,3.9223075E-1,-3.496509E-1,4.2908382E-1,8.133225E-1,1.4158725E-2,-3.503822E-2,-3.094423E-1,3.0053908E-2,-6.230602E-1,-1.508461E-1,-1.0085211E-1,-2.0042172E-2,2.9305608E-3,-1.9843133E-2,4.593991E-3,7.895403E-2,7.852545E-2,1.0073378E-2,8.085587E-2,-2.2508435E-2,5.981928E-2,1.1040666E-1,5.14395E-2,-4.0308326E-2,1.1176946E-1,-5.4324914E-2,-1.0293624E-2,-5.717147E-2,-3.3259876E-2,7.901498E-2,1.0140284E-1,5.4508936E-2,-6.7316405E-2,1.5319853E-2,-7.437402E-2,-3.6369916E-2,-3.129971E-2,-9.903612E-5],"categories":[],"categories_nodes":[],"categories_segments":[],"categories_sizes":[],"default_left":[0,0,0,0,0,0,0,0,0,0,0,0,0,0,0,0,0,0,0,0,0,0,0,0,0,0,0,0,0,0,0,0,0,0,0,0,0,0,0,0,0,0,0,0,0,0,0,0,0,0,0,0,0,0,0,0,0,0,0,0,0,0,0,0,0,0,0,0,0,0,0,0,0],"id":12,"left_children":[1,3,5,7,9,11,13,15,17,-1,19,21,23,25,27,29,31,33,35,37,39,-1,41,-1,-1,43,45,-1,-1,47,49,51,53,55,57,59,61,63,65,-1,-1,67,-1,69,71,-1,-1,-1,-1,-1,-1,-1,-1,-1,-1,-1,-1,-1,-1,-1,-1,-1,-1,-1,-1,-1,-1,-1,-1,-1,-1,-1,-1],"loss_changes":[8.233064E0,9.029398E0,2.6457677E0,7.2246575E0,4.7092724E0,3.4467545E0,3.381176E0,7.6413975E0,3.316464E1,0E0,4.911639E0,1.7194223E0,4.3114467E0,8.9797306E-1,4.560143E-1,6.107745E0,4.6458726E0,5.12891E0,4.4764256E0,9.5846176E-1,7.8330964E-1,0E0,1.1652966E0,0E0,0E0,1.5138745E0,2.1130886E0,0E0,0E0,3.3245468E0,1.8114452E0,2.5887146E0,5.442364E0,2.8912582E0,2.7270608E0,6.931052E0,3.9387846E0,4.5753174E0,7.605648E-1,0E0,0E0,2.1392746E0,0E0,2.106595E-1,3.5592183E-1,0E0,0E0,0E0,0E0,0E0,0E0,0E0,0E0,0E0,0E0,0E0,0E0,0E0,0E0,0E0,0E0,0E0,0E0,0E0,0E0,0E0,0E0,0E0,0E0,0E0,0E0,0E0,0E0],"parents":[2147483647,0,0,1,1,2,2,3,3,4,4,5,5,6,6,7,7,8,8,10,10,11,11,12,12,13,13,14,14,15,15,16,16,17,17,18,18,19,19,20,20,22,22,25,25,26,26,29,29,30,30,31,31,32,32,33,33,34,34,35,35,36,36,37,37,38,38,41,41,43,43,44,44],"right_children":[2,4,6,8,10,12,14,16,18,-1,20,22,24,26,28,30,32,34,36,38,40,-1,42,-1,-1,44,46,-1,-1,48,50,52,54,56,58,60,62,64,66,-1,-1,68,-1,70,72,-1,-1,-1,-1,-1,-1,-1,-1,-1,-1,-1,-1,-1,-1,-1,-1,-1,-1,-1,-1,-1,-1,-1,-1,-1,-1,-1,-1],"split_conditions":[1E0,1E0,7E-1,1E0,1.9E1,1E0,9E-1,1E0,1E0,-5.880794E-2,3.8E1,2.5E-1,1.2E1,2.2E1,1E0,3E0,1E0,1E0,8.333333E-1,1E0,4E0,-8.959244E-2,7E0,8.4070325E-2,-2.8416395E-2,1E0,4.1E1,-5.4059247E-3,4.4291895E-2,2.2E1,7E-1,3.9E1,2.2E1,2E0,7E-1,3E0,2E0,1E0,1E0,1.4158725E-2,-3.503822E-2,1.2E1,3.0053908E-2,7E-1,1E0,-1.0085211E-1,-2.0042172E-2,2.9305608E-3,-1.9843133E-2,4.593991E-3,7.895403E-2,7.852545E-2,1.0073378E-2,8.085587E-2,-2.2508435E-2,5.981928E-2,1.1040666E-1,5.14395E-2,-4.0308326E-2,1.1176946E-1,-5.4324914E-2,-1.0293624E-2,-5.717147E-2,-3.3259876E-2,7.901498E-2,1.0140284E-1,5.4508936E-2,-6.7316405E-2,1.5319853E-2,-7.437402E-2,-3.6369916E-2,-3.129971E-2,-9.903612E-5],"split_indices":[5,12,32,16,17,28,35,10,4,0,17,33,17,17,20,27,19,30,33,19,31,0,31,0,0,32,17,0,0,17,32,17,17,31,32,27,20,24,20,0,0,17,0,35,28,0,0,0,0,0,0,0,0,0,0,0,0,0,0,0,0,0,0,0,0,0,0,0,0,0,0,0,0],"split_type":[0,0,0,0,0,0,0,0,0,0,0,0,0,0,0,0,0,0,0,0,0,0,0,0,0,0,0,0,0,0,0,0,0,0,0,0,0,0,0,0,0,0,0,0,0,0,0,0,0,0,0,0,0,0,0,0,0,0,0,0,0,0,0,0,0,0,0,0,0,0,0,0,0],"sum_hessian":[7.1085736E2,6.3188684E2,7.897048E1,5.787967E2,5.3090137E1,2.9732935E1,4.923755E1,4.1893967E2,1.5985706E2,3.407256E0,4.968288E1,1.7725252E1,1.2007683E1,4.312984E1,6.107711E0,3.6481384E2,5.4125816E1,7.957118E1,8.0285866E1,3.807538E1,1.1607504E1,3.2838972E0,1.4441355E1,6.4150443E0,5.592639E0,2.803276E1,1.5097077E1,3.0024478E0,3.105263E0,3.5135745E2,1.3456396E1,2.5963694E1,2.8162123E1,6.8454155E1,1.11170225E1,8.318209E0,7.196766E1,1.4680866E1,2.339451E1,7.248428E0,4.359076E0,1.1100294E1,3.3410602E0,1.4372569E1,1.36601925E1,9.576993E0,5.520084E0,8.3898285E1,2.6745917E2,5.305244E0,8.151152E0,1.7648932E1,8.314762E0,5.4905562E0,2.2671566E1,5.1466816E1,1.6987343E1,4.83842E0,6.278603E0,4.5752916E0,3.742917E0,3.47849E1,3.718276E1,4.746591E0,9.934275E0,1.1791269E1,1.1603242E1,5.9597645E0,5.1405296E0,8.534093E0,5.8384757E0,6.0380645E0,7.622128E0],"tree_param":{"num_deleted":"0","num_feature":"36","num_nodes":"73","size_leaf_vector":"1"}},{"base_weights":[3.2492913E-2,7.7262014E-2,-3.1932816E-1,4.0634055E-2,4.42583E-1,-2.65115E-1,-8.678879E-2,1.02453925E-1,-9.982205E-2,1.8535005E-1,6.999018E-1,-1.9712722E-1,-6.4190847E-1,1.17645875E-1,-6.150197E-1,-3.5829537E-2,-6.311933E-1,6.613847E-2,3.936042E-3,2.7556086E-1,9.072427E-1,-7.8265816E-2,-5.1160306E-1,-8.476441E-2,-2.848283E-2,1.4839114E-1,-1.6669634E-1,-1.1498419E-1,1.3855943E-2,-1.117653E-1,3.3831728E-1,-7.7891773E-1,-3.332016E-1,-2.4451762E-1,3.980134E-1,7.269093E-2,-2.813368E-2,5.4535717E-1,1.20792866E-1,-1.4527988E-1,2.3494719E-1,-3.4210214E-1,-8.251875E-2,6.2014656E-3,2.6959864E-2,-4.269528E-2,8.844415E-3,-5.106059E-3,-3.6986317E-2,4.7403943E-2,-4.1589554E-2,-1.0595667E-1,-5.2917548E-2,1.6724084E-2,-7.1348846E-2,-3.9224878E-2,1.5825644E-2,6.0009092E-2,1.8015815E-3,9.080907E-2,1.3864575E-3,1.6825946E-2,-2.6345497E-2,3.966611E-2,-4.8821303E-3,-5.40892E-2,-3.535737E-3],"categories":[],"categories_nodes":[],"categories_segments":[],"categories_sizes":[],"default_left":[0,0,0,0,0,0,0,0,0,0,0,0,0,0,0,0,0,0,0,0,0,0,0,0,0,0,0,0,0,0,0,0,0,0,0,0,0,0,0,0,0,0,0,0,0,0,0,0,0,0,0,0,0,0,0,0,0,0,0,0,0,0,0,0,0,0,0],"id":13,"left_children":[1,3,5,7,9,11,-1,13,15,17,19,21,23,25,27,29,31,-1,33,35,37,39,41,-1,-1,43,45,-1,-1,47,49,51,53,55,57,-1,-1,59,-1,61,63,65,-1,-1,-1,-1,-1,-1,-1,-1,-1,-1,-1,-1,-1,-1,-1,-1,-1,-1,-1,-1,-1,-1,-1,-1,-1],"loss_changes":[1.1111122E1,8.348042E0,2.138669E0,4.953846E0,3.6347141E0,1.767282E0,0E0,4.3868895E0,5.911413E0,2.5710104E0,2.219801E0,2.3548403E0,5.5617094E-1,3.4207835E0,3.5319986E0,4.4930677E0,5.635214E-1,0E0,2.308516E0,2.8814993E0,1.3457146E0,1.034853E0,6.4220905E-1,0E0,0E0,3.6590157E0,2.5860271E0,0E0,0E0,2.0352924E0,2.9307842E0,2.630496E-1,1.6312299E0,9.231125E-1,6.8899083E-1,0E0,0E0,1.9505663E0,0E0,1.5224199E0,4.2250285E-1,7.7350736E-1,0E0,0E0,0E0,0E0,0E0,0E0,0E0,0E0,0E0,0E0,0E0,0E0,0E0,0E0,0E0,0E0,0E0,0E0,0E0,0E0,0E0,0E0,0E0,0E0,0E0],"parents":[2147483647,0,0,1,1,2,2,3,3,4,4,5,5,7,7,8,8,9,9,10,10,11,11,12,12,13,13,14,14,15,15,16,16,18,18,19,19,20,20,21,21,22,22,25,25,26,26,29,29,30,30,31,31,32,32,33,33,34,34,37,37,39,39,40,40,41,41],"right_children":[2,4,6,8,10,12,-1,14,16,18,20,22,24,26,28,30,32,-1,34,36,38,40,42,-1,-1,44,46,-1,-1,48,50,52,54,56,58,-1,-1,60,-1,62,64,66,-1,-1,-1,-1,-1,-1,-1,-1,-1,-1,-1,-1,-1,-1,-1,-1,-1,-1,-1,-1,-1,-1,-1,-1,-1],"split_conditions":[1E0,1E0,1E0,1E0,1E0,1E0,-8.678879E-2,3E0,1E0,1E0,1E0,1E0,1E0,1E0,1E0,1E0,1E0,6.613847E-2,1E0,1E0,1E0,1E0,1E0,-8.476441E-2,-2.848283E-2,1E0,1E0,-1.1498419E-1,1.3855943E-2,1E0,1E0,1E0,1E0,1E0,1E0,7.269093E-2,-2.813368E-2,1E0,1.20792866E-1,5.4545456E-1,1E0,7E-1,-8.251875E-2,6.2014656E-3,2.6959864E-2,-4.269528E-2,8.844415E-3,-5.106059E-3,-3.6986317E-2,4.7403943E-2,-4.1589554E-2,-1.0595667E-1,-5.2917548E-2,1.6724084E-2,-7.1348846E-2,-3.9224878E-2,1.5825644E-2,6.0009092E-2,1.8015815E-3,9.080907E-2,1.3864575E-3,1.6825946E-2,-2.6345497E-2,3.966611E-2,-4.8821303E-3,-5.40892E-2,-3.535737E-3],"split_indices":[6,34,11,32,32,13,0,20,11,21,21,23,21,15,30,24,29,0,28,4,16,8,32,0,0,18,19,0,0,7,8,21,19,0,18,0,0,18,0,33,21,32,0,0,0,0,0,0,0,0,0,0,0,0,0,0,0,0,0,0,0,0,0,0,0,0,0],"split_type":[0,0,0,0,0,0,0,0,0,0,0,0,0,0,0,0,0,0,0,0,0,0,0,0,0,0,0,0,0,0,0,0,0,0,0,0,0,0,0,0,0,0,0,0,0,0,0,0,0,0,0,0,0,0,0,0,0,0,0,0,0,0,0,0,0,0,0],"sum_hessian":[7.0286975E2,6.2421857E2,7.865119E1,5.6834607E2,5.587251E1,7.2927216E1,5.723973E0,3.9483524E2,1.7351085E2,2.8801214E1,2.7071295E1,6.3070152E1,9.857064E0,3.8746695E2,7.368286E0,1.5581378E2,1.7697073E1,7.217253E0,2.1583961E1,9.650252E0,1.7421043E1,4.667676E1,1.6393387E1,5.3822203E0,4.4748445E0,3.5009058E2,3.737636E1,4.00211E0,3.3661764E0,1.301086E2,2.5705189E1,1.0752707E1,6.944366E0,1.347065E1,8.113312E0,5.161628E0,4.488624E0,9.182867E0,8.238175E0,3.8891766E1,7.784997E0,1.1998703E1,4.394685E0,2.0529918E2,1.447914E2,1.8169317E1,1.9207045E1,1.0630374E2,2.3804846E1,2.2099768E1,3.6054208E0,3.5362208E0,7.2164855E0,3.2403796E0,3.7039864E0,9.874845E0,3.595805E0,4.9185157E0,3.194796E0,5.0367885E0,4.1460786E0,1.0530002E1,2.8361765E1,4.7055607E0,3.0794363E0,6.8173213E0,5.181381E0],"tree_param":{"num_deleted":"0","num_feature":"36","num_nodes":"67","size_leaf_vector":"1"}},{"base_weights":[-3.6545822E-3,2.9182492E-2,-2.7653074E-1,1.0810341E-2,4.989882E-1,-1.3326351E-1,-7.4895483E-1,2.7910827E-3,1.07719064E-1,6.7454946E-1,9.136184E-2,-2.1046112E-1,9.799716E-2,-5.379472E-1,-1.1953189E-1,-3.639209E-2,2.0343277E-1,9.429075E-1,-1.669368E-4,-5.1531907E-2,5.921142E-2,-9.830252E-2,-8.286897E-2,-7.2685964E-2,-3.8287327E-2,-9.283965E-2,1.8033394E-1,4.317131E-1,-1.6548175E-1,6.48579E-2,1.22183695E-1,6.405588E-3,-8.6188816E-2,2.9870768E-3,-1.9169172E-2,2.9992163E-2,-7.843546E-2,1.0979141E-1,2.072126E-2,-1.06261306E-1,1.1915909E-2,-9.605322E-3,8.3429314E-2],"categories":[],"categories_nodes":[],"categories_segments":[],"categories_sizes":[],"default_left":[0,0,0,0,0,0,0,0,0,0,0,0,0,0,0,0,0,0,0,0,0,0,0,0,0,0,0,0,0,0,0,0,0,0,0,0,0,0,0,0,0,0,0],"id":14,"left_children":[1,3,5,7,9,11,13,15,-1,17,19,21,-1,23,-1,25,27,29,-1,-1,-1,31,-1,-1,-1,33,35,37,39,-1,-1,41,-1,-1,-1,-1,-1,-1,-1,-1,-1,-1,-1],"loss_changes":[6.309814E0,5.420681E0,5.019465E0,5.179348E0,1.6298776E0,5.298359E0,9.942751E-1,4.7440515E0,0E0,2.9711938E0,2.8181717E0,3.817738E0,0E0,1.2076664E-1,0E0,6.1935472E0,8.374134E0,1.6946697E-1,0E0,0E0,0E0,3.9018774E0,0E0,0E0,0E0,4.872736E0,1.2310607E1,8.922656E0,9.934663E0,0E0,0E0,3.799569E0,0E0,0E0,0E0,0E0,0E0,0E0,0E0,0E0,0E0,0E0,0E0],"parents":[2147483647,0,0,1,1,2,2,3,3,4,4,5,5,6,6,7,7,9,9,10,10,11,11,13,13,15,15,16,16,17,17,21,21,25,25,26,26,27,27,28,28,31,31],"right_children":[2,4,6,8,10,12,14,16,-1,18,20,22,-1,24,-1,26,28,30,-1,-1,-1,32,-1,-1,-1,34,36,38,40,-1,-1,42,-1,-1,-1,-1,-1,-1,-1,-1,-1,-1,-1],"split_conditions":[1E0,3E0,1E0,1E1,6.1E1,4E1,3E0,8E0,1.07719064E-1,4E0,8.4E1,1E0,9.799716E-2,7E-1,-1.1953189E-1,1E0,1E0,3E0,-1.669368E-4,-5.1531907E-2,5.921142E-2,3.3E1,-8.286897E-2,-7.2685964E-2,-3.8287327E-2,2.5E1,1E0,1E0,2E1,6.48579E-2,1.22183695E-1,1E0,-8.6188816E-2,2.9870768E-3,-1.9169172E-2,2.9992163E-2,-7.843546E-2,1.0979141E-1,2.072126E-2,-1.06261306E-1,1.1915909E-2,-9.605322E-3,8.3429314E-2],"split_indices":[6,27,23,26,17,17,31,31,0,31,17,13,0,32,0,24,4,31,0,0,0,17,0,0,0,17,8,30,17,0,0,10,0,0,0,0,0,0,0,0,0,0,0],"split_type":[0,0,0,0,0,0,0,0,0,0,0,0,0,0,0,0,0,0,0,0,0,0,0,0,0,0,0,0,0,0,0,0,0,0,0,0,0,0,0,0,0,0,0],"sum_hessian":[7.0228406E2,6.276479E2,7.4636154E1,6.050114E2,2.2636473E1,5.8252575E1,1.6383577E1,6.014908E2,3.5206375E0,1.5364353E1,7.2721195E0,5.5233345E1,3.0192266E0,1.2622009E1,3.7615693E0,5.0390262E2,9.7588165E1,1.0716943E1,4.647411E0,3.2751088E0,3.9970105E0,4.7732716E1,7.5006304E0,4.0279455E0,8.594064E0,4.002316E2,1.03671036E2,6.017951E1,3.7408657E1,6.83249E0,3.8844523E0,4.284863E1,4.884087E0,1.7887819E2,2.213534E2,9.2849976E1,1.0821055E1,1.4187599E1,4.599191E1,8.351913E0,2.9056742E1,3.8916348E1,3.9322834E0],"tree_param":{"num_deleted":"0","num_feature":"36","num_nodes":"43","size_leaf_vector":"1"}},{"base_weights":[3.687977E-3,3.7275523E-2,-2.996606E-1,6.839405E-2,-2.336369E-1,-3.9374426E-1,-4.325419E-2,1.2061507E-1,-1.4791913E-1,-4.068429E-1,1.4542699E-1,-4.7597483E-1,-1.003818E-1,-4.1437592E-2,1.3756485E-1,8.396559E-2,5.867681E-1,8.462559E-2,-3.6259615E-1,-5.823363E-1,3.1653315E-2,3.3541968E-1,-4.6307016E-2,-5.4893816E-1,9.599087E-3,4.60283E-2,-4.871243E-2,4.1366108E-2,-1.2465342E-2,1.2486544E-1,-1.7097507E-1,-2.1209657E-2,6.914389E-1,2.9141715E-1,-6.072975E-2,-4.3195865E-1,5.9177633E-2,-6.7966634E-1,-1.7745633E-1,4.7703624E-1,-5.230095E-2,6.799134E-2,6.324746E-2,-4.577877E-1,-9.46112E-2,-1.5603058E-2,2.3005962E-2,2.8312227E-2,5.798944E-3,-8.422199E-3,-3.617769E-2,4.841307E-2,1.215777E-1,-9.01663E-3,9.8544076E-2,-5.0857432E-2,1.9096013E-2,-1.11837044E-1,-3.418872E-2,-1.3221899E-3,-7.768642E-2,2.485063E-2,-6.235215E-2,5.778539E-3,7.725779E-2,3.7475035E-2,-3.9462883E-2,-5.39113E-2,2.5929243E-3],"categories":[],"categories_nodes":[],"categories_segments":[],"categories_sizes":[],"default_left":[0,0,0,0,0,0,0,0,0,0,0,0,0,0,0,0,0,0,0,0,0,0,0,0,0,0,0,0,0,0,0,0,0,0,0,0,0,0,0,0,0,0,0,0,0,0,0,0,0,0,0,0,0,0,0,0,0,0,0,0,0,0,0,0,0,0,0,0,0],"id":15,"left_children":[1,3,5,7,9,11,13,15,17,19,21,23,25,-1,27,29,31,33,35,37,39,41,-1,43,-1,-1,-1,-1,45,47,49,-1,51,53,55,57,-1,59,61,63,-1,-1,65,67,-1,-1,-1,-1,-1,-1,-1,-1,-1,-1,-1,-1,-1,-1,-1,-1,-1,-1,-1,-1,-1,-1,-1,-1,-1],"loss_changes":[7.156894E0,5.3466225E0,1.6721902E0,6.433326E0,4.3513813E0,1.1850038E0,1.3937612E0,7.776074E0,5.5667543E0,3.4916754E0,2.610844E0,1.7072926E0,2.9249942E0,0E0,5.91079E-1,4.4614286E0,2.9244375E0,1.6421269E0,4.0852666E0,1.1516619E0,3.6707137E0,1.5289907E0,0E0,8.4523296E-1,0E0,0E0,0E0,0E0,3.8879743E-1,3.8733854E0,9.509716E-1,0E0,2.6296024E0,6.0420814E0,3.7675612E0,2.9877844E0,0E0,1.6528854E0,1.6009773E0,9.7190154E-1,0E0,0E0,1.6410248E0,1.2199926E0,0E0,0E0,0E0,0E0,0E0,0E0,0E0,0E0,0E0,0E0,0E0,0E0,0E0,0E0,0E0,0E0,0E0,0E0,0E0,0E0,0E0,0E0,0E0,0E0,0E0],"parents":[2147483647,0,0,1,1,2,2,3,3,4,4,5,5,6,6,7,7,8,8,9,9,10,10,11,11,12,12,14,14,15,15,16,16,17,17,18,18,19,19,20,20,21,21,23,23,28,28,29,29,30,30,32,32,33,33,34,34,35,35,37,37,38,38,39,39,42,42,43,43],"right_children":[2,4,6,8,10,12,14,16,18,20,22,24,26,-1,28,30,32,34,36,38,40,42,-1,44,-1,-1,-1,-1,46,48,50,-1,52,54,56,58,-1,60,62,64,-1,-1,66,68,-1,-1,-1,-1,-1,-1,-1,-1,-1,-1,-1,-1,-1,-1,-1,-1,-1,-1,-1,-1,-1,-1,-1,-1,-1],"split_conditions":[1E0,1E0,1E0,8E-1,3.3E1,5E0,1E0,1E1,1E0,1E0,4E0,4.5E1,8E0,-4.1437592E-2,1E0,1E0,5E-1,2.2E1,1E0,8E-1,1E0,1E0,-4.6307016E-2,3.7E1,9.599087E-3,4.60283E-2,-4.871243E-2,4.1366108E-2,3.6E1,2.4E1,1E0,-2.1209657E-2,3.6E1,1.2E1,3E1,1E0,5.9177633E-2,2.5E-1,2.2E1,6.25E-1,-5.230095E-2,6.799134E-2,4E1,3.3E1,-9.46112E-2,-1.5603058E-2,2.3005962E-2,2.8312227E-2,5.798944E-3,-8.422199E-3,-3.617769E-2,4.841307E-2,1.215777E-1,-9.01663E-3,9.8544076E-2,-5.0857432E-2,1.9096013E-2,-1.11837044E-1,-3.418872E-2,-1.3221899E-3,-7.768642E-2,2.485063E-2,-6.235215E-2,5.778539E-3,7.725779E-2,3.7475035E-2,-3.9462883E-2,-5.39113E-2,2.5929243E-3],"split_indices":[15,11,29,35,17,31,21,31,16,29,31,17,31,0,18,7,33,17,28,35,20,18,0,17,0,0,0,0,17,17,18,0,17,17,17,21,0,33,17,33,0,0,17,17,0,0,0,0,0,0,0,0,0,0,0,0,0,0,0,0,0,0,0,0,0,0,0,0,0],"split_type":[0,0,0,0,0,0,0,0,0,0,0,0,0,0,0,0,0,0,0,0,0,0,0,0,0,0,0,0,0,0,0,0,0,0,0,0,0,0,0,0,0,0,0,0,0,0,0,0,0,0,0,0,0,0,0,0,0,0,0,0,0,0,0,0,0,0,0,0,0],"sum_hessian":[7.003358E2,6.313124E2,6.902344E1,5.6693823E2,6.4374176E1,5.010331E1,1.8920128E1,4.5704385E2,1.09894356E2,4.4134483E1,2.023969E1,3.864773E1,1.1455579E1,5.7751894E0,1.31449375E1,4.2482385E2,3.2220013E1,5.304269E1,5.6851665E1,3.1285486E1,1.2848996E1,1.5765851E1,4.4738407E0,3.431107E1,4.336663E0,4.5986753E0,6.8569036E0,4.0093894E0,9.135549E0,3.6653177E2,5.8292072E1,3.613659E0,2.8606352E1,2.1479605E1,3.1563086E1,5.351002E1,3.341645E0,2.4675095E1,6.6103907E0,7.2041574E0,5.644839E0,6.297227E0,9.468623E0,2.9657381E1,4.653687E0,5.962578E0,3.1729703E0,1.0791822E2,2.5861356E2,4.106308E1,1.7228994E1,2.1879246E1,6.727106E0,1.4420889E1,7.0587163E0,1.09890585E1,2.0574028E1,4.882818E0,4.8627205E1,3.2852898E0,2.1389805E1,3.6079402E0,3.0024505E0,3.4729738E0,3.7311835E0,5.743051E0,3.7255723E0,2.529082E1,4.366561E0],"tree_param":{"num_deleted":"0","num_feature":"36","num_nodes":"69","size_leaf_vector":"1"}},{"base_weights":[6.4561316E-3,-2.3865072E-1,5.4808658E-2,-3.0296397E-1,2.9710385E-1,3.3683577E-1,-1.8150454E-2,-2.2031479E-1,-6.0219204E-1,7.050399E-2,6.5761276E-2,2.228429E-1,1.1490586E0,2.3708826E-1,-1.1582823E-1,-3.191004E-1,8.206517E-2,1.15153855E-2,-7.560419E-1,-3.3919513E-2,5.153319E-2,3.3380148E-1,-3.7311327E-1,1.3642876E-1,3.723568E-2,4.061628E-1,-1.3146193E-1,-1.792487E-1,2.2712365E-1,-2.0888633E-1,-7.1620893E-1,-4.8877153E-1,-1.02626674E-1,3.808913E-1,-4.783632E-2,-6.329015E-2,-2.3603992E-1,5.7774496E-1,1.8259995E-1,-2.231181E-1,4.4234674E-2,-1.2735939E-1,-5.4498386E-1,-4.0569395E-1,3.2692224E-1,-2.5157884E-2,3.3992328E-2,-9.460512E-2,-1.7453184E-2,-2.2252506E-2,-6.29799E-2,9.247041E-3,5.817026E-2,-3.9683726E-2,1.974297E-2,6.8626404E-2,3.0824137E-3,2.8542852E-2,-6.924185E-2,2.650854E-2,-3.27696E-2,-2.0742096E-2,1.3423488E-2,-8.312326E-3,-9.5696025E-2,-5.129149E-3,-6.26406E-2,4.115205E-2,-1.999571E-2],"categories":[],"categories_nodes":[],"categories_segments":[],"categories_sizes":[],"default_left":[0,0,0,0,0,0,0,0,0,0,0,0,0,0,0,0,0,0,0,0,0,0,0,0,0,0,0,0,0,0,0,0,0,0,0,0,0,0,0,0,0,0,0,0,0,0,0,0,0,0,0,0,0,0,0,0,0,0,0,0,0,0,0,0,0,0,0,0,0],"id":16,"left_children":[1,3,5,7,9,11,13,15,17,-1,19,21,23,25,27,29,-1,-1,31,-1,-1,33,35,-1,-1,37,39,41,43,45,47,49,-1,51,-1,-1,53,55,57,59,-1,61,63,65,67,-1,-1,-1,-1,-1,-1,-1,-1,-1,-1,-1,-1,-1,-1,-1,-1,-1,-1,-1,-1,-1,-1,-1,-1],"loss_changes":[8.235761E0,4.0353603E0,1.1946703E1,2.407854E0,1.1594383E0,1.0791399E1,1.1545272E1,8.70139E0,2.4770994E0,0E0,1.859933E0,7.125653E0,1.9066582E0,8.041424E0,7.322487E0,3.162558E0,0E0,0E0,7.9579353E-1,0E0,0E0,3.6159687E0,4.5920157E-1,0E0,0E0,3.274846E0,2.258705E0,5.303216E0,3.4602509E0,1.5065122E0,1.8304834E0,2.7065396E-1,0E0,4.8936005E0,0E0,0E0,9.692824E-1,2.9105396E0,3.7721806E0,1.9288521E0,0E0,5.247655E0,6.5553694E0,5.642135E-1,2.135611E0,0E0,0E0,0E0,0E0,0E0,0E0,0E0,0E0,0E0,0E0,0E0,0E0,0E0,0E0,0E0,0E0,0E0,0E0,0E0,0E0,0E0,0E0,0E0,0E0],"parents":[2147483647,0,0,1,1,2,2,3,3,4,4,5,5,6,6,7,7,8,8,10,10,11,11,12,12,13,13,14,14,15,15,18,18,21,21,22,22,25,25,26,26,27,27,28,28,29,29,30,30,31,31,33,33,36,36,37,37,38,38,39,39,41,41,42,42,43,43,44,44],"right_children":[2,4,6,8,10,12,14,16,18,-1,20,22,24,26,28,30,-1,-1,32,-1,-1,34,36,-1,-1,38,40,42,44,46,48,50,-1,52,-1,-1,54,56,58,60,-1,62,64,66,68,-1,-1,-1,-1,-1,-1,-1,-1,-1,-1,-1,-1,-1,-1,-1,-1,-1,-1,-1,-1,-1,-1,-1,-1],"split_conditions":[2E1,1E0,1E0,1E0,6.923077E-1,9E0,2.5E1,1E1,1.3E1,7.050399E-2,1E0,1E0,1E0,1E0,1E0,3E0,8.206517E-2,1.15153855E-2,2E0,-3.3919513E-2,5.153319E-2,6.8E1,3.1E1,1.3642876E-1,3.723568E-2,2.2E1,1E0,1E0,2E-1,1E0,7E-1,1.8E1,-1.02626674E-1,2.7E1,-4.783632E-2,-6.329015E-2,1E0,5E0,1E0,2E-1,4.4234674E-2,1E0,3.5E1,6E0,9E0,-2.5157884E-2,3.3992328E-2,-9.460512E-2,-1.7453184E-2,-2.2252506E-2,-6.29799E-2,9.247041E-3,5.817026E-2,-3.9683726E-2,1.974297E-2,6.8626404E-2,3.0824137E-3,2.8542852E-2,-6.924185E-2,2.650854E-2,-3.27696E-2,-2.0742096E-2,1.3423488E-2,-8.312326E-3,-9.5696025E-2,-5.129149E-3,-6.26406E-2,4.115205E-2,-1.999571E-2],"split_indices":[17,9,21,4,33,31,17,31,17,0,28,5,19,25,25,31,0,0,31,0,0,17,17,0,0,17,16,2,33,19,35,17,0,17,0,0,30,31,9,33,0,24,17,26,31,0,0,0,0,0,0,0,0,0,0,0,0,0,0,0,0,0,0,0,0,0,0,0,0],"split_type":[0,0,0,0,0,0,0,0,0,0,0,0,0,0,0,0,0,0,0,0,0,0,0,0,0,0,0,0,0,0,0,0,0,0,0,0,0,0,0,0,0,0,0,0,0,0,0,0,0,0,0,0,0,0,0,0,0,0,0,0,0,0,0,0,0,0,0,0,0],"sum_hessian":[6.9280725E2,1.13503555E2,5.793037E2,1.0172656E2,1.1776989E1,1.1831897E2,4.6098474E2,8.107052E1,2.0656048E1,3.5208776E0,8.256111E0,1.0487453E2,1.3444443E1,1.2719313E2,3.337916E2,7.467725E1,6.3932643E0,3.692196E0,1.6963852E1,4.4727435E0,3.7833676E0,8.878408E1,1.6090446E1,9.934904E0,3.509539E0,8.7122925E1,4.0070206E1,2.821013E2,5.1690327E1,5.9648373E1,1.502888E1,9.940648E0,7.0232034E0,8.442035E1,4.363727E0,4.3081603E0,1.1782286E1,4.8395573E1,3.8727356E1,3.507822E1,4.9919844E0,2.4823126E2,3.3870018E1,6.6238317E0,4.5066494E1,5.584567E1,3.8027048E0,1.002752E1,5.0013595E0,4.3348136E0,5.6058345E0,3.5250835E1,4.9169518E1,8.655867E0,3.126419E0,4.0170277E1,8.225294E0,3.5257805E1,3.46955E0,5.9176965E0,2.9160524E1,1.902208E2,5.801046E1,1.6534832E1,1.7335188E1,3.0149875E0,3.608844E0,3.902018E1,6.0463166E0],"tree_param":{"num_deleted":"0","num_feature":"36","num_nodes":"69","size_leaf_vector":"1"}},{"base_weights":[7.580521E-3,-1.065123E-2,5.225901E-1,1.4587095E-2,-2.1795735E-1,-3.0044515E-2,7.0802784E-1,4.5505274E-2,-1.960024E-1,1.8759433E-2,-3.1069738E-1,1.1963061E-1,4.2216754E-1,8.510982E-2,-1.902726E-1,-2.6205423E-1,3.1707594E-1,-2.3202585E-1,7.0570394E-2,-1.8525967E-1,-4.30871E-1,9.664374E-2,1.3572125E-1,1.1390276E-1,-1.8346864E-1,-1.3476045E-1,-5.7860744E-1,-3.1657073E-1,5.071455E-2,7.522845E-2,-1.1974416E-2,-5.686449E-1,2.2623511E-2,-4.7241047E-2,-3.5859097E-2,-2.8829896E-1,-6.4109063E-1,-2.4535498E-2,3.658266E-2,1.6475132E-2,-1.0535292E-2,6.833603E-2,-4.2667683E-2,1.0054905E-2,-3.0203724E-2,-8.360516E-2,-1.0218656E-2,-1.8768838E-2,-5.6571025E-2,-2.750059E-2,-7.484775E-2,1.5944703E-2,-2.1819359E-2,-4.247446E-2,4.87511E-3,-8.7945454E-2,-2.2378203E-2],"categories":[],"categories_nodes":[],"categories_segments":[],"categories_sizes":[],"default_left":[0,0,0,0,0,0,0,0,0,0,0,0,0,0,0,0,0,0,0,0,0,0,0,0,0,0,0,0,0,0,0,0,0,0,0,0,0,0,0,0,0,0,0,0,0,0,0,0,0,0,0,0,0,0,0,0,0],"id":17,"left_children":[1,3,5,7,9,-1,11,13,15,17,19,-1,21,23,25,27,29,31,-1,33,35,-1,37,39,41,43,45,47,-1,-1,-1,49,-1,-1,51,53,55,-1,-1,-1,-1,-1,-1,-1,-1,-1,-1,-1,-1,-1,-1,-1,-1,-1,-1,-1,-1],"loss_changes":[6.4657173E0,3.4849741E0,3.805985E0,3.877689E0,1.5927608E0,0E0,2.2184715E0,4.861888E0,2.6674223E0,3.8317444E0,7.0397806E-1,0E0,2.0284917E0,3.462072E0,1.5375228E0,3.0165567E0,1.829545E0,2.6507704E0,0E0,1.1497381E0,5.8846235E-1,0E0,9.876147E-1,4.5049872E0,9.455712E0,2.662514E0,1.0269098E0,1.9557538E0,0E0,0E0,0E0,3.0694032E-1,0E0,0E0,7.103395E-1,8.113159E-1,7.5907135E-1,0E0,0E0,0E0,0E0,0E0,0E0,0E0,0E0,0E0,0E0,0E0,0E0,0E0,0E0,0E0,0E0,0E0,0E0,0E0,0E0],"parents":[2147483647,0,0,1,1,2,2,3,3,4,4,6,6,7,7,8,8,9,9,10,10,12,12,13,13,14,14,15,15,16,16,17,17,19,19,20,20,22,22,23,23,24,24,25,25,26,26,27,27,31,31,34,34,35,35,36,36],"right_children":[2,4,6,8,10,-1,12,14,16,18,20,-1,22,24,26,28,30,32,-1,34,36,-1,38,40,42,44,46,48,-1,-1,-1,50,-1,-1,52,54,56,-1,-1,-1,-1,-1,-1,-1,-1,-1,-1,-1,-1,-1,-1,-1,-1,-1,-1,-1,-1],"split_conditions":[3E0,1E0,3.7E1,1E0,1E0,-3.0044515E-2,4.3E1,1E0,1E0,1E0,2.2E1,1.1963061E-1,7.2727275E-1,1E0,1E0,4.3E1,1.4E1,1E0,7.0570394E-2,7E-1,1E0,9.664374E-2,6E0,3.8E1,1E0,1E0,1E0,2.3E1,5.071455E-2,7.522845E-2,-1.1974416E-2,7E-1,2.2623511E-2,-4.7241047E-2,1E0,3.2E1,1E0,-2.4535498E-2,3.658266E-2,1.6475132E-2,-1.0535292E-2,6.833603E-2,-4.2667683E-2,1.0054905E-2,-3.0203724E-2,-8.360516E-2,-1.0218656E-2,-1.8768838E-2,-5.6571025E-2,-2.750059E-2,-7.484775E-2,1.5944703E-2,-2.1819359E-2,-4.247446E-2,4.87511E-3,-8.7945454E-2,-2.2378203E-2],"split_indices":[27,7,17,5,20,0,17,6,9,29,17,0,33,9,13,17,17,32,0,32,32,0,26,17,21,21,21,17,0,0,0,32,0,0,32,17,29,0,0,0,0,0,0,0,0,0,0,0,0,0,0,0,0,0,0,0,0],"split_type":[0,0,0,0,0,0,0,0,0,0,0,0,0,0,0,0,0,0,0,0,0,0,0,0,0,0,0,0,0,0,0,0,0,0,0,0,0,0,0,0,0,0,0,0,0,0,0,0,0,0,0,0,0,0,0,0,0],"sum_hessian":[6.8701666E2,6.6447314E2,2.254356E1,5.931858E2,7.1287315E1,4.0312624E0,1.8512297E1,5.1792883E2,7.525699E1,2.0291489E1,5.099583E1,5.659821E0,1.2852477E1,4.439892E2,7.393961E1,6.710712E1,8.149876E0,1.5349886E1,4.941603E0,2.619499E1,2.4800838E1,3.6132116E0,9.239265E0,4.0152014E2,4.246904E1,6.58705E1,8.069115E0,6.321522E1,3.8918946E0,3.7207088E0,4.4291663E0,8.710585E0,6.639302E0,8.224775E0,1.7970215E1,1.6191261E1,8.609578E0,3.4535637E0,5.7857013E0,3.2613367E2,7.53865E1,8.90841E0,3.356063E1,2.75353E1,3.83352E1,4.748371E0,3.3207436E0,4.2818256E1,2.0396967E1,4.2690744E0,4.4415097E0,8.737083E0,9.233132E0,1.1340274E1,4.850987E0,4.7748E0,3.8347778E0],"tree_param":{"num_deleted":"0","num_feature":"36","num_nodes":"57","size_leaf_vector":"1"}},{"base_weights":[2.08856E-2,-2.2064884E-1,6.2329452E-2,-1.1881253E-1,-6.315429E-1,2.9351726E-1,2.137937E-3,-1.8517688E-1,7.5059906E-2,-4.4703892E-1,-9.943905E-2,2.1323015E-1,8.1557953E-1,2.4776685E-1,-8.605074E-2,-2.2808702E-1,2.4822515E-1,-1.3947034E-2,-5.2014434E-1,1.3864106E-1,9.44119E-1,2.1788599E-2,1.167804E-1,1.1686071E-1,7.167464E-1,-1.2506804E-1,1.5544277E-1,-3.8650545E-1,-6.1147116E-2,-3.1044384E-2,7.17898E-2,-6.8420484E-3,-6.876225E-2,5.5551213E-1,1.1215867E-2,2.0025508E-2,1.277862E-1,1.6454287E-1,-4.1401576E-2,8.013116E-1,3.621118E-3,-1.7842844E-1,1.1351153E-1,-2.9428557E-1,3.466963E-1,-7.552822E-2,-2.425953E-3,2.7556464E-3,-6.736517E-2,1.5518255E-2,7.538819E-2,-6.0378457E-3,6.2188454E-2,3.6254287E-2,-1.8228872E-3,4.1216508E-2,8.687458E-2,-2.4284614E-2,1.2530497E-2,-1.3048381E-2,3.5168722E-2,-6.780397E-3,-7.5992934E-2,4.56096E-2,-5.090795E-2],"categories":[],"categories_nodes":[],"categories_segments":[],"categories_sizes":[],"default_left":[0,0,0,0,0,0,0,0,0,0,0,0,0,0,0,0,0,0,0,0,0,0,0,0,0,0,0,0,0,0,0,0,0,0,0,0,0,0,0,0,0,0,0,0,0,0,0,0,0,0,0,0,0,0,0,0,0,0,0,0,0,0,0,0,0],"id":18,"left_children":[1,3,5,7,9,11,13,15,-1,17,-1,19,21,23,25,27,29,-1,31,33,35,-1,-1,37,39,41,43,45,47,-1,-1,-1,-1,49,51,-1,-1,53,-1,55,-1,57,59,61,63,-1,-1,-1,-1,-1,-1,-1,-1,-1,-1,-1,-1,-1,-1,-1,-1,-1,-1,-1,-1],"loss_changes":[6.993808E0,4.2074394E0,8.292422E0,4.942264E0,9.007921E-1,4.985895E0,1.0285799E1,1.5099399E0,0E0,2.67838E-1,0E0,5.7594686E0,3.12533E0,7.6173873E0,3.3117537E0,1.8706613E0,2.1957824E0,0E0,8.50564E-1,5.264023E0,2.18532E0,0E0,0E0,2.5807939E0,1.5351171E0,3.8568478E0,4.3206596E0,4.8661795E0,1.9779603E0,0E0,0E0,0E0,0E0,1.7259116E0,3.404364E0,0E0,0E0,3.3286517E0,0E0,2.750826E-1,0E0,4.856748E0,3.2824981E0,1.548858E0,3.4969292E0,0E0,0E0,0E0,0E0,0E0,0E0,0E0,0E0,0E0,0E0,0E0,0E0,0E0,0E0,0E0,0E0,0E0,0E0,0E0,0E0],"parents":[2147483647,0,0,1,1,2,2,3,3,4,4,5,5,6,6,7,7,9,9,11,11,12,12,13,13,14,14,15,15,16,16,18,18,19,19,20,20,23,23,24,24,25,25,26,26,27,27,28,28,33,33,34,34,37,37,39,39,41,41,42,42,43,43,44,44],"right_children":[2,4,6,8,10,12,14,16,-1,18,-1,20,22,24,26,28,30,-1,32,34,36,-1,-1,38,40,42,44,46,48,-1,-1,-1,-1,50,52,-1,-1,54,-1,56,-1,58,60,62,64,-1,-1,-1,-1,-1,-1,-1,-1,-1,-1,-1,-1,-1,-1,-1,-1,-1,-1,-1,-1],"split_conditions":[1.9E1,1E0,1E0,1E1,1.8E1,9E0,2.3E1,9E-1,7.5059906E-2,1E0,-9.943905E-2,1E0,3.3E1,1E0,1E0,1E0,5E0,-1.3947034E-2,1.3E1,4.2857143E-1,3.1E1,2.1788599E-2,1.167804E-1,8E0,1E0,1E0,3.3E1,1.3E1,1E0,-3.1044384E-2,7.17898E-2,-6.8420484E-3,-6.876225E-2,2.7E1,1E0,2.0025508E-2,1.277862E-1,1E0,-4.1401576E-2,6.923077E-1,3.621118E-3,8E0,4.9E1,4E0,1E0,-7.552822E-2,-2.425953E-3,2.7556464E-3,-6.736517E-2,1.5518255E-2,7.538819E-2,-6.0378457E-3,6.2188454E-2,3.6254287E-2,-1.8228872E-3,4.1216508E-2,8.687458E-2,-2.4284614E-2,1.2530497E-2,-1.3048381E-2,3.5168722E-2,-6.780397E-3,-7.5992934E-2,4.56096E-2,-5.090795E-2],"split_indices":[17,4,21,31,17,31,17,35,0,16,0,14,17,18,3,28,31,0,17,33,17,0,0,31,13,25,17,17,13,0,0,0,0,17,8,0,0,28,0,33,0,31,17,31,13,0,0,0,0,0,0,0,0,0,0,0,0,0,0,0,0,0,0,0,0],"split_type":[0,0,0,0,0,0,0,0,0,0,0,0,0,0,0,0,0,0,0,0,0,0,0,0,0,0,0,0,0,0,0,0,0,0,0,0,0,0,0,0,0,0,0,0,0,0,0,0,0,0,0,0,0,0,0,0,0,0,0,0,0,0,0,0,0],"sum_hessian":[6.962999E2,1.0134398E2,5.9495593E2,8.224858E1,1.9095398E1,1.2210192E2,4.72854E2,7.714679E1,5.1017966E0,1.4138271E1,4.9571257E0,1.0704767E2,1.5054248E1,1.2444158E2,3.484124E2,7.0627815E1,6.5189705E0,3.273561E0,1.0864711E1,9.821433E1,8.833339E0,6.182202E0,8.872046E0,9.826272E1,2.617887E1,3.0036548E2,4.8046947E1,3.5563972E1,3.506384E1,3.132239E0,3.3867316E0,3.3195963E0,7.545114E0,2.2206459E1,7.600787E1,3.231293E0,5.6020455E0,9.079753E1,7.4651804E0,2.3127506E1,3.051362E0,2.4567111E2,5.4694363E1,1.4175308E1,3.387164E1,1.7085474E1,1.84785E1,3.1462427E1,3.6014128E0,7.9483013E0,1.4258158E1,6.883843E1,7.1694374E0,4.3111004E1,4.768653E1,4.4662066E0,1.86613E1,2.028499E2,4.282122E1,2.7240458E1,2.7453905E1,1.0307514E1,3.8677943E0,3.0446493E1,3.4251466E0],"tree_param":{"num_deleted":"0","num_feature":"36","num_nodes":"65","size_leaf_vector":"1"}},{"base_weights":[-1.3948903E-2,1.3726162E-2,-2.5011417E-1,4.1300427E-2,-2.1318446E-1,-1.7817023E-1,-7.5490487E-1,8.068631E-2,-1.184522E-1,-3.124884E-1,2.3953453E-1,-3.5662156E-1,4.5881785E-2,-9.746486E-2,-3.470345E-2,5.2519124E-3,3.1921604E-1,3.0658484E-1,-2.382591E-1,-4.037226E-1,1.8485986E-1,4.0322167E-1,-1.0382696E-2,-4.584651E-1,2.9986802E-2,-3.980989E-1,5.5067605E-1,-1.3860437E-2,5.382346E-1,4.7277844E-1,-1.09516986E-1,4.213021E-1,-1.0811462E-2,-3.187391E-1,2.7660218E-1,2.9912943E-2,-4.671692E-1,-2.2885932E-2,4.989997E-2,6.547666E-2,1.3125091E-2,-2.2713068E-1,-7.6112795E-1,-7.4491644E-1,3.2535426E-2,1.3850404E-1,-5.9225738E-2,-4.4231284E-2,5.5447017E-4,8.844621E-2,-2.4620809E-2,6.177513E-2,-2.4514588E-2,-3.40522E-2,3.659522E-2,5.9955306E-2,-8.6151445E-3,-4.370974E-2,-7.799664E-3,7.213077E-4,8.188662E-2,-2.822238E-2,-7.3506825E-2,-1.1809547E-2,-5.6526788E-2,-9.4144784E-2,-2.7882427E-2,-1.10145226E-1,-3.670774E-2],"categories":[],"categories_nodes":[],"categories_segments":[],"categories_sizes":[],"default_left":[0,0,0,0,0,0,0,0,0,0,0,0,0,0,0,0,0,0,0,0,0,0,0,0,0,0,0,0,0,0,0,0,0,0,0,0,0,0,0,0,0,0,0,0,0,0,0,0,0,0,0,0,0,0,0,0,0,0,0,0,0,0,0,0,0,0,0,0,0],"id":19,"left_children":[1,3,5,7,9,11,13,15,17,19,21,23,25,-1,-1,27,29,31,33,35,37,39,-1,41,-1,43,45,47,49,51,53,55,-1,57,59,-1,61,-1,-1,-1,-1,63,65,67,-1,-1,-1,-1,-1,-1,-1,-1,-1,-1,-1,-1,-1,-1,-1,-1,-1,-1,-1,-1,-1,-1,-1,-1,-1],"loss_changes":[4.5285573E0,3.8923037E0,2.5048046E0,3.4969652E0,3.1055896E0,2.6119423E0,4.466076E-1,8.00956E0,5.675915E0,2.6029882E0,7.552794E-1,2.561152E0,6.8683105E0,0E0,0E0,3.463515E0,7.0935307E0,1.2173483E0,3.668076E0,2.2533932E0,1.3258802E0,5.1612175E-1,0E0,2.052064E0,0E0,4.3484545E0,1.4459612E1,2.7337108E0,3.4144754E0,8.367317E0,3.3118842E0,1.8153644E0,0E0,2.108118E0,1.7784128E0,0E0,1.9658642E0,0E0,0E0,0E0,0E0,6.498418E-1,8.97758E-1,1.126832E0,0E0,0E0,0E0,0E0,0E0,0E0,0E0,0E0,0E0,0E0,0E0,0E0,0E0,0E0,0E0,0E0,0E0,0E0,0E0,0E0,0E0,0E0,0E0,0E0,0E0],"parents":[2147483647,0,0,1,1,2,2,3,3,4,4,5,5,6,6,7,7,8,8,9,9,10,10,11,11,12,12,15,15,16,16,17,17,18,18,19,19,20,20,21,21,23,23,25,25,26,26,27,27,28,28,29,29,30,30,31,31,33,33,34,34,36,36,41,41,42,42,43,43],"right_children":[2,4,6,8,10,12,14,16,18,20,22,24,26,-1,-1,28,30,32,34,36,38,40,-1,42,-1,44,46,48,50,52,54,56,-1,58,60,-1,62,-1,-1,-1,-1,64,66,68,-1,-1,-1,-1,-1,-1,-1,-1,-1,-1,-1,-1,-1,-1,-1,-1,-1,-1,-1,-1,-1,-1,-1,-1,-1],"split_conditions":[1E0,1E0,1E0,8E-1,1E0,3E1,1E0,1E0,7E-1,1E0,1E0,1E0,6E-1,-9.746486E-2,-3.470345E-2,4E0,1E0,3.3E1,1E0,1.5E1,7E-1,1E0,-1.0382696E-2,2.3E1,2.9986802E-2,4E1,3.5E1,1.3E1,4E0,1E0,3.9E1,3E0,-1.0811462E-2,1E0,3.3E1,2.9912943E-2,6E-1,-2.2885932E-2,4.989997E-2,6.547666E-2,1.3125091E-2,4E0,1E0,7E-1,3.2535426E-2,1.3850404E-1,-5.9225738E-2,-4.4231284E-2,5.5447017E-4,8.844621E-2,-2.4620809E-2,6.177513E-2,-2.4514588E-2,-3.40522E-2,3.659522E-2,5.9955306E-2,-8.6151445E-3,-4.370974E-2,-7.799664E-3,7.213077E-4,8.188662E-2,-2.822238E-2,-7.3506825E-2,-1.1809547E-2,-5.6526788E-2,-9.4144784E-2,-2.7882427E-2,-1.10145226E-1,-3.670774E-2],"split_indices":[13,15,3,35,25,17,28,16,32,4,30,2,35,0,0,27,4,17,30,17,32,28,0,17,0,17,17,17,31,30,17,31,0,18,17,0,35,0,0,0,0,31,0,32,0,0,0,0,0,0,0,0,0,0,0,0,0,0,0,0,0,0,0,0,0,0,0,0,0],"split_type":[0,0,0,0,0,0,0,0,0,0,0,0,0,0,0,0,0,0,0,0,0,0,0,0,0,0,0,0,0,0,0,0,0,0,0,0,0,0,0,0,0,0,0,0,0,0,0,0,0,0,0,0,0,0,0,0,0,0,0,0,0,0,0,0,0,0,0,0,0],"sum_hessian":[6.9135016E2,6.196753E2,7.167487E1,5.532608E2,6.6414474E1,6.391808E1,7.756793E0,4.442332E2,1.09027626E2,5.4721138E1,1.1693332E1,3.52504E1,2.8667677E1,4.137873E0,3.6189198E0,3.3827625E2,1.0595694E2,2.363151E1,8.539612E1,4.6398067E1,8.323073E0,7.8003955E0,3.8929367E0,3.0777433E1,4.472969E0,1.536505E1,1.3302627E1,3.275061E2,1.0770123E1,7.793844E1,2.8018505E1,1.8498417E1,5.133092E0,7.418145E1,1.1214669E1,3.5340211E0,4.2864044E1,3.7093575E0,4.613716E0,3.321168E0,4.4792275E0,1.8436386E1,1.2341047E1,1.0366004E1,4.999046E0,7.5668473E0,5.7357793E0,1.3246163E1,3.1425995E2,7.383696E0,3.386427E0,6.496031E1,1.2978125E1,1.9047947E1,8.970557E0,1.3555385E1,4.943033E0,4.918471E1,2.4996735E1,8.169486E0,3.0451834E0,2.6572834E1,1.629121E1,1.4961255E1,3.4751306E0,8.289757E0,4.051291E0,4.3480077E0,6.0179963E0],"tree_param":{"num_deleted":"0","num_feature":"36","num_nodes":"69","size_leaf_vector":"1"}},{"base_weights":[-1.587069E-2,-3.930663E-2,2.0722361E-1,-4.679487E-2,6.677049E-2,-6.564247E-2,3.3350244E-1,-3.695351E-2,-1.0130004E-1,1.6574785E-1,-4.916041E-1,2.4520087E-1,6.3989395E-1,6.2003598E-2,-7.752485E-2,-1.4527552E-2,5.3495254E-2,-8.942142E-2,1.0203955E-2,7.469897E-2,5.4684913E-1,3.349848E-2,8.600942E-2,-1.5549559E-2,6.3073725E-1,-4.3102335E-2,-3.711034E-1,-1.6809246E-1,3.057852E-1,1.6177542E-3,7.9463616E-2,-8.078377E-3,5.2189555E-2,8.5673384E-2,3.5070688E-2,-2.1343788E-3,-3.846238E-2,-9.218415E-2,-1.8612871E-2,3.4139615E-2,-4.5252252E-2,6.5172456E-2,-3.0216089E-2],"categories":[],"categories_nodes":[],"categories_segments":[],"categories_sizes":[],"default_left":[0,0,0,0,0,0,0,0,0,0,0,0,0,0,0,0,0,0,0,0,0,0,0,0,0,0,0,0,0,0,0,0,0,0,0,0,0,0,0,0,0,0,0],"id":20,"left_children":[1,3,5,7,-1,9,11,13,-1,15,17,19,21,23,25,-1,-1,-1,-1,27,29,-1,-1,31,33,35,37,39,41,-1,-1,-1,-1,-1,-1,-1,-1,-1,-1,-1,-1,-1,-1],"loss_changes":[3.626208E0,3.3510478E0,2.2941036E0,5.8714957E0,0E0,2.2201262E0,1.0671902E0,2.4787023E0,0E0,1.7781575E0,1.977004E0,1.8489449E0,3.4979105E-1,7.937096E0,4.404873E0,0E0,0E0,0E0,0E0,1.4334635E0,1.7111092E0,0E0,0E0,5.6214776E0,1.0659494E0,2.9098275E0,4.4920106E0,1.9887574E0,2.925843E0,0E0,0E0,0E0,0E0,0E0,0E0,0E0,0E0,0E0,0E0,0E0,0E0,0E0,0E0],"parents":[2147483647,0,0,1,1,2,2,3,3,5,5,6,6,7,7,9,9,10,10,11,11,12,12,13,13,14,14,19,19,20,20,23,23,24,24,25,25,26,26,27,27,28,28],"right_children":[2,4,6,8,-1,10,12,14,-1,16,18,20,22,24,26,-1,-1,-1,-1,28,30,-1,-1,32,34,36,38,40,42,-1,-1,-1,-1,-1,-1,-1,-1,-1,-1,-1,-1,-1,-1],"split_conditions":[1E0,1E1,1E0,8E0,6.677049E-2,1E0,1E0,1E0,-1.0130004E-1,1E0,5E0,1E0,1E0,1E0,1E0,-1.4527552E-2,5.3495254E-2,-8.942142E-2,1.0203955E-2,1E0,1E0,3.349848E-2,8.600942E-2,2E0,5E0,1E0,5E-1,1E0,1E0,1.6177542E-3,7.9463616E-2,-8.078377E-3,5.2189555E-2,8.5673384E-2,3.5070688E-2,-2.1343788E-3,-3.846238E-2,-9.218415E-2,-1.8612871E-2,3.4139615E-2,-4.5252252E-2,6.5172456E-2,-3.0216089E-2],"split_indices":[12,26,21,26,0,32,30,21,0,20,26,32,20,9,9,0,0,0,0,19,28,0,0,27,26,23,33,28,7,0,0,0,0,0,0,0,0,0,0,0,0,0,0],"split_type":[0,0,0,0,0,0,0,0,0,0,0,0,0,0,0,0,0,0,0,0,0,0,0,0,0,0,0,0,0,0,0,0,0,0,0,0,0,0,0,0,0,0,0],"sum_hessian":[6.9099866E2,6.2605566E2,6.494301E1,6.204184E2,5.637284E0,2.0698154E1,4.4244854E1,6.1519055E2,5.2278247E0,1.3808179E1,6.889975E0,3.5743824E1,8.50103E0,1.7872823E2,4.364623E2,7.8238077E0,5.984371E0,3.8038697E0,3.0861056E0,2.3633179E1,1.2110644E1,4.6221113E0,3.8789184E0,1.5813713E2,2.0591099E1,3.9168365E2,4.477866E1,1.1657642E1,1.1975536E1,4.1939607E0,7.9166837E0,1.4177803E2,1.6359097E1,1.0255243E1,1.03358555E1,3.6922275E2,2.246092E1,1.025679E1,3.4521866E1,4.104725E0,7.552917E0,7.586553E0,4.3889837E0],"tree_param":{"num_deleted":"0","num_feature":"36","num_nodes":"43","size_leaf_vector":"1"}},{"base_weights":[2.4482256E-2,5.050481E-2,-1.9248557E-1,7.4651904E-2,-1.8506384E-1,-4.1172388E-1,5.1702447E-2,-1.24616295E-1,1.0385463E-1,-3.9100435E-1,1.1868982E-1,-5.8329946E-1,1.3681406E-1,-2.9695693E-1,4.6255383E-1,-2.0574844E-1,4.0577576E-1,2.5652513E-1,2.5134297E-2,-4.6508628E-1,1.366436E-2,-6.040689E-2,3.0135292E-1,-4.1566715E-1,-1.0356549E-1,3.6089238E-2,-1.9262154E-2,-5.80795E-2,-1.5757792E-1,-2.6803909E-2,9.516254E-2,-2.7587923E-1,2.3242277E-1,7.700971E-2,9.104471E-3,1.498606E-1,6.6504407E-1,3.7674522E-1,1.09169996E-4,-1.9416983E-1,-8.711771E-2,8.1687056E-2,-6.0100485E-2,-6.9710124E-1,-2.200308E-1,1.1777073E-1,-5.9293266E-2,-6.286917E-2,-2.0880762E-2,6.993476E-2,-1.5312684E-2,2.3815757E-2,-1.1183884E-3,7.153156E-2,2.4924872E-2,5.5282693E-2,-6.927892E-3,9.096038E-3,-9.832497E-3,-3.2165714E-2,2.3853736E-2,-4.772135E-2,5.2461583E-2,-3.0188838E-2,-1.0759055E-1,2.1979181E-2,-3.981079E-2,-1.343112E-2,4.6295468E-2],"categories":[],"categories_nodes":[],"categories_segments":[],"categories_sizes":[],"default_left":[0,0,0,0,0,0,0,0,0,0,0,0,0,0,0,0,0,0,0,0,0,0,0,0,0,0,0,0,0,0,0,0,0,0,0,0,0,0,0,0,0,0,0,0,0,0,0,0,0,0,0,0,0,0,0,0,0,0,0,0,0,0,0,0,0,0,0,0,0],"id":21,"left_children":[1,3,5,7,9,11,13,15,17,19,21,23,25,27,29,31,33,35,37,39,-1,-1,41,43,-1,-1,-1,-1,45,-1,-1,47,49,-1,-1,51,53,55,57,59,-1,-1,61,63,65,67,-1,-1,-1,-1,-1,-1,-1,-1,-1,-1,-1,-1,-1,-1,-1,-1,-1,-1,-1,-1,-1,-1,-1],"loss_changes":[3.8717263E0,3.4925313E0,3.9540665E0,3.244968E0,3.6212468E0,3.7333498E0,5.2429204E0,3.1579401E0,5.821978E0,1.4039092E0,3.3316982E0,1.8262291E0,8.120845E-1,6.953125E-1,6.240963E0,1.9887171E0,1.0553449E0,7.0848293E0,2.825222E0,3.163827E0,0E0,0E0,3.7220168E0,1.1341248E0,0E0,0E0,0E0,0E0,1.8333364E0,0E0,0E0,1.1571345E0,1.7604072E0,0E0,0E0,1.8801322E0,5.2917576E-1,1.7137876E0,2.6985214E0,1.1501698E0,0E0,0E0,3.3035388E0,1.04176E0,1.2823939E0,9.1892326E-1,0E0,0E0,0E0,0E0,0E0,0E0,0E0,0E0,0E0,0E0,0E0,0E0,0E0,0E0,0E0,0E0,0E0,0E0,0E0,0E0,0E0,0E0,0E0],"parents":[2147483647,0,0,1,1,2,2,3,3,4,4,5,5,6,6,7,7,8,8,9,9,10,10,11,11,12,12,13,13,14,14,15,15,16,16,17,17,18,18,19,19,22,22,23,23,28,28,31,31,32,32,35,35,36,36,37,37,38,38,39,39,42,42,43,43,44,44,45,45],"right_children":[2,4,6,8,10,12,14,16,18,20,22,24,26,28,30,32,34,36,38,40,-1,-1,42,44,-1,-1,-1,-1,46,-1,-1,48,50,-1,-1,52,54,56,58,60,-1,-1,62,64,66,68,-1,-1,-1,-1,-1,-1,-1,-1,-1,-1,-1,-1,-1,-1,-1,-1,-1,-1,-1,-1,-1,-1,-1],"split_conditions":[1E0,1E0,2.9E1,1.7E1,3E0,1E0,1E0,1E0,2.5E1,4.7E1,3.7E1,2E0,1E0,5E0,6E-1,1E0,4E0,1E0,1.6666667E-1,3.7E1,1.366436E-2,-6.040689E-2,4.8E1,8.333333E-1,-1.0356549E-1,3.6089238E-2,-1.9262154E-2,-5.80795E-2,1E0,-2.6803909E-2,9.516254E-2,2.5E-1,1E0,7.700971E-2,9.104471E-3,1E0,1E0,1E0,1E0,2E0,-8.711771E-2,8.1687056E-2,5E0,3.75E-1,1E0,4E1,-5.9293266E-2,-6.286917E-2,-2.0880762E-2,6.993476E-2,-1.5312684E-2,2.3815757E-2,-1.1183884E-3,7.153156E-2,2.4924872E-2,5.5282693E-2,-6.927892E-3,9.096038E-3,-9.832497E-3,-3.2165714E-2,2.3853736E-2,-4.772135E-2,5.2461583E-2,-3.0188838E-2,-1.0759055E-1,2.1979181E-2,-3.981079E-2,-1.343112E-2,4.6295468E-2],"split_indices":[13,27,17,17,27,29,19,9,17,17,17,20,20,26,35,8,26,18,33,17,0,0,17,33,0,0,0,0,30,0,0,33,5,0,0,4,30,24,19,20,0,0,27,33,28,17,0,0,0,0,0,0,0,0,0,0,0,0,0,0,0,0,0,0,0,0,0,0,0],"split_type":[0,0,0,0,0,0,0,0,0,0,0,0,0,0,0,0,0,0,0,0,0,0,0,0,0,0,0,0,0,0,0,0,0,0,0,0,0,0,0,0,0,0,0,0,0,0,0,0,0,0,0,0,0,0,0,0,0,0,0,0,0,0,0,0,0,0,0,0,0],"sum_hessian":[6.8301794E2,6.105566E2,7.246134E1,5.5440967E2,5.6146957E1,3.7819725E1,3.4641617E1,7.0445984E1,4.8396365E2,3.3289753E1,2.2857204E1,2.8760456E1,9.059269E0,1.8889069E1,1.5752549E1,6.1630653E1,8.815334E0,1.6387846E2,3.200852E2,2.9295258E1,3.9944968E0,4.145871E0,1.8711332E1,2.238427E1,6.3761873E0,5.334986E0,3.724283E0,5.177778E0,1.3711291E1,6.4978166E0,9.254732E0,5.344671E1,8.183944E0,3.415191E0,5.4001436E0,1.3103261E2,3.284585E1,2.0333826E1,2.9975137E2,1.845888E1,1.0836378E1,7.192778E0,1.1518555E1,8.128175E0,1.4256094E1,8.845968E0,4.865323E0,7.199934E0,4.6246777E1,3.3332589E0,4.850684E0,8.4322E1,4.6710617E1,2.866034E1,4.185512E0,1.4406832E1,5.9269943E0,1.5591931E2,1.4383205E2,1.4456301E1,4.0025783E0,6.830096E0,4.6884594E0,4.85736E0,3.2708154E0,4.041059E0,1.02150345E1,5.4655037E0,3.380464E0],"tree_param":{"num_deleted":"0","num_feature":"36","num_nodes":"69","size_leaf_vector":"1"}},{"base_weights":[-6.974216E-3,-1.4907123E-2,7.250266E-1,7.8188665E-3,-2.1211411E-1,9.991252E-2,2.4836926E-2,1.3128112E-1,-3.37718E-2,-1.15206525E-1,-5.4262686E-1,-4.857543E-1,1.9051704E-1,-5.323961E-1,-7.6862657E-3,-2.0995685E-1,6.582852E-2,8.09733E-3,-9.4813854E-1,-6.47544E-2,-1.9314636E-2,5.0546086E-1,8.4620595E-2,-6.560159E-1,-2.0106814E-3,1.7598823E-3,-8.7559305E-2,-2.808953E-1,3.21061E-2,-1.3728957E-1,-2.5447711E-2,6.010097E-2,7.2563863E-3,1.6329901E-2,-4.44405E-2,-3.9415445E-2,-9.4292395E-2,1.3558574E-3,-4.7552627E-2,-4.2694416E-2,-2.4157204E-3],"categories":[],"categories_nodes":[],"categories_segments":[],"categories_sizes":[],"default_left":[0,0,0,0,0,0,0,0,0,0,0,0,0,0,0,0,0,0,0,0,0,0,0,0,0,0,0,0,0,0,0,0,0,0,0,0,0,0,0,0,0],"id":22,"left_children":[1,3,5,7,9,-1,-1,11,13,15,17,19,21,23,25,27,-1,-1,29,-1,-1,31,33,35,-1,37,-1,39,-1,-1,-1,-1,-1,-1,-1,-1,-1,-1,-1,-1,-1],"loss_changes":[3.962031E0,3.0228846E0,7.0758414E-1,3.1132321E0,2.1697116E0,0E0,0E0,5.676119E0,5.896678E0,4.1809306E0,4.004419E0,5.217242E-1,4.629768E0,1.4141822E0,3.5442746E0,1.9698999E0,0E0,0E0,2.4468412E0,0E0,0E0,1.4062567E0,4.4865828E0,9.9013615E-1,0E0,2.4193225E0,0E0,1.6602554E0,0E0,0E0,0E0,0E0,0E0,0E0,0E0,0E0,0E0,0E0,0E0,0E0,0E0],"parents":[2147483647,0,0,1,1,2,2,3,3,4,4,7,7,8,8,9,9,10,10,11,11,12,12,13,13,14,14,15,15,18,18,21,21,22,22,23,23,25,25,27,27],"right_children":[2,4,6,8,10,-1,-1,12,14,16,18,20,22,24,26,28,-1,-1,30,-1,-1,32,34,36,-1,38,-1,40,-1,-1,-1,-1,-1,-1,-1,-1,-1,-1,-1,-1,-1],"split_conditions":[1E1,1E0,1.2E1,6E-1,4E0,9.991252E-2,2.4836926E-2,1.3E1,8.888889E-1,1E0,1E0,1E0,1E0,9E0,8E0,1E0,6.582852E-2,8.09733E-3,9E0,-6.47544E-2,-1.9314636E-2,1E0,1E0,8E-1,-2.0106814E-3,6E1,-8.7559305E-2,6E0,3.21061E-2,-1.3728957E-1,-2.5447711E-2,6.010097E-2,7.2563863E-3,1.6329901E-2,-4.44405E-2,-3.9415445E-2,-9.4292395E-2,1.3558574E-3,-4.7552627E-2,-4.2694416E-2,-2.4157204E-3],"split_indices":[26,13,20,33,31,0,0,17,33,30,20,28,21,31,26,1,0,0,31,0,0,5,6,33,0,17,0,26,0,0,0,0,0,0,0,0,0,0,0,0,0],"split_type":[0,0,0,0,0,0,0,0,0,0,0,0,0,0,0,0,0,0,0,0,0,0,0,0,0,0,0,0,0,0,0,0,0,0,0,0,0,0,0,0,0],"sum_hessian":[6.794366E2,6.731214E2,6.3151784E0,6.044279E2,6.8693474E1,3.3136048E0,3.0015736E0,1.5176265E2,4.5266525E2,5.4161644E1,1.4531832E1,1.2662491E1,1.3910016E2,2.1538961E1,4.3112628E2,4.8900093E1,5.2615504E0,6.041487E0,8.490345E0,7.37286E0,5.289631E0,3.4052464E1,1.0504769E2,1.7125801E1,4.4131594E0,4.2747174E2,3.654557E0,4.3552906E1,5.347187E0,4.658534E0,3.8318107E0,2.7577274E1,6.475188E0,9.2049164E1,1.299853E1,1.0194796E1,6.931006E0,4.1810754E2,9.3641815E0,2.7338234E1,1.6214674E1],"tree_param":{"num_deleted":"0","num_feature":"36","num_nodes":"41","size_leaf_vector":"1"}},{"base_weights":[-7.071633E-3,2.191301E-2,-2.8463662E-1,-1.703618E-1,6.0609978E-2,1.4237349E-1,-4.7199562E-1,-1.2150978E-1,-3.7599072E-1,2.6647934E-1,4.9207592E-3,5.1218458E-2,-3.8146187E-2,5.617149E-2,-6.083652E-1,-1.6345546E-1,3.360143E-1,-6.512162E-1,2.211043E-2,4.2832905E-1,-1.0290272E-1,1.9087566E-1,-5.6120794E-2,-4.5567375E-2,2.1005769E-1,4.3981936E-2,-6.3446246E-2,-8.364721E-1,-9.841188E-2,-7.9910025E-2,-4.2873824E-1,4.639355E-3,5.4375853E-2,-3.390319E-2,-8.8287726E-2,5.17945E-1,-2.4634369E-1,-2.527771E-1,7.6966874E-2,1.341433E-1,9.4872534E-2,5.113021E-1,-8.090962E-2,-6.45272E-3,6.102553E-2,-8.9750186E-2,-4.086551E-2,-5.9690315E-2,1.3331677E-1,-2.3664663E-2,5.752481E-2,3.937288E-3,-6.4097874E-2,7.0120804E-2,2.406948E-2,-5.4630768E-2,1.3964958E-2,2.3804083E-3,-3.188721E-2,5.5324614E-2,1.8477153E-3,9.287788E-2,-1.0703481E-2,-1.1895959E-2,2.419187E-2,4.49433E-2,-3.0867953E-2],"categories":[],"categories_nodes":[],"categories_segments":[],"categories_sizes":[],"default_left":[0,0,0,0,0,0,0,0,0,0,0,0,0,0,0,0,0,0,0,0,0,0,0,0,0,0,0,0,0,0,0,0,0,0,0,0,0,0,0,0,0,0,0,0,0,0,0,0,0,0,0,0,0,0,0,0,0,0,0,0,0,0,0,0,0,0,0],"id":23,"left_children":[1,3,5,7,9,11,13,15,17,19,21,-1,23,25,27,29,31,33,-1,35,37,39,41,-1,43,-1,-1,45,47,49,51,-1,-1,-1,-1,53,55,57,-1,59,-1,61,63,-1,-1,-1,-1,-1,65,-1,-1,-1,-1,-1,-1,-1,-1,-1,-1,-1,-1,-1,-1,-1,-1,-1,-1],"loss_changes":[5.5576687E0,4.665978E0,5.2926993E0,1.0100408E0,5.9789762E0,1.4005595E0,3.3206015E0,1.7130057E0,3.3809834E0,6.68266E0,4.6825905E0,0E0,1.6327747E0,3.0025427E0,4.145998E0,1.7346976E0,4.310211E-1,6.9409037E-1,0E0,4.8075943E0,4.7242923E0,4.255782E0,4.4107475E0,0E0,1.1367877E0,0E0,0E0,2.8549767E-1,1.5082195E0,6.4953794E0,1.9016922E0,0E0,0E0,0E0,0E0,3.3193645E0,1.2056153E0,5.6172824E-1,0E0,4.643902E0,0E0,3.4912312E0,3.69544E0,0E0,0E0,0E0,0E0,0E0,1.4325999E0,0E0,0E0,0E0,0E0,0E0,0E0,0E0,0E0,0E0,0E0,0E0,0E0,0E0,0E0,0E0,0E0,0E0,0E0],"parents":[2147483647,0,0,1,1,2,2,3,3,4,4,5,5,6,6,7,7,8,8,9,9,10,10,12,12,13,13,14,14,15,15,16,16,17,17,19,19,20,20,21,21,22,22,24,24,27,27,28,28,29,29,30,30,35,35,36,36,37,37,39,39,41,41,42,42,48,48],"right_children":[2,4,6,8,10,12,14,16,18,20,22,-1,24,26,28,30,32,34,-1,36,38,40,42,-1,44,-1,-1,46,48,50,52,-1,-1,-1,-1,54,56,58,-1,60,-1,62,64,-1,-1,-1,-1,-1,66,-1,-1,-1,-1,-1,-1,-1,-1,-1,-1,-1,-1,-1,-1,-1,-1,-1,-1],"split_conditions":[1E0,2E1,1E0,1E0,2.4E1,3.75E-1,2.2E1,1E0,8E0,1E0,1E0,5.1218458E-2,1.6E1,1E0,3.6E1,1E0,1.4E1,1E0,2.211043E-2,1E0,1E0,1E1,4E0,-4.5567375E-2,3E0,4.3981936E-2,-6.3446246E-2,1E0,8.333333E-1,1E0,4E0,4.639355E-3,5.4375853E-2,-3.390319E-2,-8.8287726E-2,2.2E1,6.25E-1,2E-1,7.6966874E-2,4.2857143E-1,9.4872534E-2,1E0,1E0,-6.45272E-3,6.102553E-2,-8.9750186E-2,-4.086551E-2,-5.9690315E-2,1E0,-2.3664663E-2,5.752481E-2,3.937288E-3,-6.4097874E-2,7.0120804E-2,2.406948E-2,-5.4630768E-2,1.3964958E-2,2.3804083E-3,-3.188721E-2,5.5324614E-2,1.8477153E-3,9.287788E-2,-1.0703481E-2,-1.1895959E-2,2.419187E-2,4.49433E-2,-3.0867953E-2],"split_indices":[9,17,21,30,17,33,17,10,31,25,21,0,17,25,17,4,17,5,0,11,16,31,26,0,31,0,0,7,33,21,26,0,0,0,0,17,33,33,0,33,0,29,12,0,0,0,0,0,19,0,0,0,0,0,0,0,0,0,0,0,0,0,0,0,0,0,0],"split_type":[0,0,0,0,0,0,0,0,0,0,0,0,0,0,0,0,0,0,0,0,0,0,0,0,0,0,0,0,0,0,0,0,0,0,0,0,0,0,0,0,0,0,0,0,0,0,0,0,0,0,0,0,0,0,0,0,0,0,0,0,0,0,0,0,0,0,0],"sum_hessian":[6.89037E2,6.247217E2,6.431533E1,1.040957E2,5.20626E2,1.968693E1,4.46284E1,8.539825E1,1.8697458E1,1.1004212E2,4.1058383E2,5.8550487E0,1.3831881E1,9.278877E0,3.534952E1,7.881522E1,6.583019E0,1.2736188E1,5.96127E0,7.640477E1,3.3637352E1,1.0094413E2,3.096397E2,4.845282E0,8.986599E0,6.1986737E0,3.0802035E0,2.3981901E1,1.1367621E1,6.0928314E1,1.7886911E1,3.2606277E0,3.3223913E0,6.4745817E0,6.2616057E0,6.765107E1,8.753704E0,2.9312838E1,4.3245163E0,9.5008804E1,5.9353204E0,1.2139393E1,2.9750034E2,5.82719E0,3.159409E0,2.0027096E1,3.9548042E0,3.107323E0,8.260299E0,4.9681557E1,1.1246759E1,5.8340335E0,1.2052878E1,3.9808434E1,2.7842632E1,4.6920652E0,4.0616384E0,5.7772403E0,2.3535597E1,1.9731365E1,7.527744E1,6.9469953E0,5.192397E0,2.6669766E2,3.0802662E1,4.8061266E0,3.454172E0],"tree_param":{"num_deleted":"0","num_feature":"36","num_nodes":"67","size_leaf_vector":"1"}},{"base_weights":[-2.0898594E-2,4.0616435E-3,-2.3667847E-1,4.265139E-2,-1.3299495E-1,-3.8100162E-1,1.1811155E-1,1.7223546E-2,1.0038757E-1,4.2215103E-1,-2.4553327E-1,-5.207016E-1,5.9870735E-2,-1.6433224E-2,5.6415495E-2,5.1133856E-2,-2.0448129E-1,5.8486123E-2,-1.9319866E-2,1.2434785E-1,-3.2570544E-1,-6.0185033E-1,-1.7750061E-3,-5.8626752E-2,4.1989458E-1,-2.8375995E-1,3.577147E-1,8.676904E-2,-1.477599E-1,-4.257306E-1,-1.080156E-1,-2.4884166E-2,5.646765E-2,-1.1944482E-1,-4.823285E-1,-8.9339115E-2,-4.6722868E-1,7.977725E-2,-9.383626E-3,-7.7352576E-2,3.1772695E-2,7.424229E-2,-1.3588639E-2,3.1975266E-3,3.4320217E-2,-2.3030382E-2,3.3581536E-2,-2.028995E-2,-8.5970215E-2,1.2060459E-2,-3.468712E-2,6.016245E-2,-2.1397045E-2,-4.5387123E-2,4.7311094E-2,-2.3185894E-2,-9.730347E-2,-5.8155008E-2,2.3924908E-2,4.4042625E-2,-3.5734504E-2],"categories":[],"categories_nodes":[],"categories_segments":[],"categories_sizes":[],"default_left":[0,0,0,0,0,0,0,0,0,0,0,0,0,0,0,0,0,0,0,0,0,0,0,0,0,0,0,0,0,0,0,0,0,0,0,0,0,0,0,0,0,0,0,0,0,0,0,0,0,0,0,0,0,0,0,0,0,0,0,0,0],"id":24,"left_children":[1,3,5,7,9,11,13,15,-1,17,19,21,23,25,-1,27,29,-1,-1,31,33,35,-1,-1,37,39,41,43,45,47,49,51,-1,53,55,-1,57,-1,-1,-1,59,-1,-1,-1,-1,-1,-1,-1,-1,-1,-1,-1,-1,-1,-1,-1,-1,-1,-1,-1,-1],"loss_changes":[3.6758647E0,3.2454722E0,3.6682446E0,1.1683868E1,8.526708E0,3.1436787E0,1.2830049E0,3.524511E0,0E0,2.425058E0,3.3834248E0,1.5597925E0,3.2835753E0,1.8296019E0,0E0,2.8918526E0,1.2817156E0,0E0,0E0,1.3811977E0,2.9443426E0,8.817854E-1,0E0,0E0,1.8157347E0,1.6680777E0,1.55215E0,4.838224E0,2.555751E0,1.6191828E0,2.4805984E0,2.083015E0,0E0,8.425984E0,6.225625E0,0E0,2.1374474E0,0E0,0E0,0E0,1.3386263E0,0E0,0E0,0E0,0E0,0E0,0E0,0E0,0E0,0E0,0E0,0E0,0E0,0E0,0E0,0E0,0E0,0E0,0E0,0E0,0E0],"parents":[2147483647,0,0,1,1,2,2,3,3,4,4,5,5,6,6,7,7,9,9,10,10,11,11,12,12,13,13,15,15,16,16,19,19,20,20,21,21,24,24,25,25,26,26,27,27,28,28,29,29,30,30,31,31,33,33,34,34,36,36,40,40],"right_children":[2,4,6,8,10,12,14,16,-1,18,20,22,24,26,-1,28,30,-1,-1,32,34,36,-1,-1,38,40,42,44,46,48,50,52,-1,54,56,-1,58,-1,-1,-1,60,-1,-1,-1,-1,-1,-1,-1,-1,-1,-1,-1,-1,-1,-1,-1,-1,-1,-1,-1,-1],"split_conditions":[1E0,1E0,1E0,1.1E1,7E-1,5E0,1E0,1E0,1.0038757E-1,5E0,8.333333E-1,1E0,5E0,1E0,5.6415495E-2,1E0,8E-1,5.8486123E-2,-1.9319866E-2,7.5E-1,2E0,8.333333E-1,-1.7750061E-3,-5.8626752E-2,1E0,7E-1,2E0,1E0,1E0,1E0,1E0,1.4285715E-1,5.646765E-2,3E0,6E0,-8.9339115E-2,1E0,7.977725E-2,-9.383626E-3,-7.7352576E-2,5E0,7.424229E-2,-1.3588639E-2,3.1975266E-3,3.4320217E-2,-2.3030382E-2,3.3581536E-2,-2.028995E-2,-8.5970215E-2,1.2060459E-2,-3.468712E-2,6.016245E-2,-2.1397045E-2,-4.5387123E-2,4.7311094E-2,-2.3185894E-2,-9.730347E-2,-5.8155008E-2,2.3924908E-2,4.4042625E-2,-3.5734504E-2],"split_indices":[15,4,29,31,32,31,25,13,0,31,33,25,26,19,0,5,33,0,0,33,20,33,0,0,19,32,20,16,9,29,28,33,0,31,26,0,4,0,0,0,26,0,0,0,0,0,0,0,0,0,0,0,0,0,0,0,0,0,0,0,0],"split_type":[0,0,0,0,0,0,0,0,0,0,0,0,0,0,0,0,0,0,0,0,0,0,0,0,0,0,0,0,0,0,0,0,0,0,0,0,0,0,0,0,0,0,0,0,0,0,0,0,0,0,0,0,0,0,0,0,0,0,0,0,0],"sum_hessian":[6.813171E2,6.1155676E2,6.976037E1,4.7773434E2,1.338224E2,4.9536E1,2.022437E1,4.6641394E2,1.1320409E1,2.2092083E1,1.11730316E2,3.7478924E1,1.2057077E1,1.6277555E1,3.9468133E0,4.0520602E2,6.1207912E1,1.7511307E1,4.580776E0,1.98054E1,9.192491E1,3.2102676E1,5.376245E0,4.0893927E0,7.967685E0,9.63499E0,6.6425667E0,3.4411563E2,6.109039E1,1.75478E1,4.366011E1,1.5496844E1,4.308557E0,4.0436176E1,5.1488735E1,8.360534E0,2.3742144E1,4.272282E0,3.695403E0,3.2064643E0,6.4285254E0,3.4497604E0,3.192806E0,2.8445825E2,5.965739E1,5.263039E1,8.46E0,1.2564074E1,4.9837255E0,2.2560984E1,2.1099129E1,3.0869517E0,1.2409892E1,2.5997667E1,1.443851E1,3.5063755E1,1.642498E1,2.0587526E1,3.1546166E0,3.0712373E0,3.3572884E0],"tree_param":{"num_deleted":"0","num_feature":"36","num_nodes":"61","size_leaf_vector":"1"}},{"base_weights":[-1.9123983E-2,-1.4200038E-1,7.5527444E-3,-7.9703085E-2,-3.82213E-1,1.7053522E-1,-3.7170295E-2,-1.75264E-1,1.9893701E-1,6.8526827E-3,-5.376535E-1,2.581286E-1,-3.2205603E-1,-6.6638336E-2,2.4488093E-1,-2.309001E-1,4.5891214E-2,1.05567366E-1,6.438589E-2,-1.3524897E-2,1.2212804E-2,-1.0122981E-1,-3.2540035E-1,3.0910933E-1,-6.487138E-2,-8.049252E-2,-9.698964E-2,-7.665481E-2,8.891871E-2,5.6447285E-1,-6.1688524E-2,-4.8956275E-1,-1.3658728E-1,-8.7635174E-2,2.0805098E-1,-4.8089004E-3,-4.635809E-1,-2.2020373E-2,5.143553E-1,3.413669E-1,-6.0935464E-2,-1.600325E-2,-2.131573E-1,2.464594E-1,1.0279494E-1,1.402528E-1,-2.3100147E-1,-7.273025E-2,-6.0031135E-3,4.4528004E-2,-2.0606657E-2,1.100937E-2,-2.5460754E-2,-3.8330655E-3,4.7503676E-2,-7.0944384E-2,-1.0808032E-2,1.1112662E-2,-8.093872E-2,8.6566634E-2,3.6726117E-2,4.606152E-3,5.4451585E-2,5.812674E-3,-3.608791E-2,-3.0361777E-2,4.9310766E-2,-2.101695E-2,5.377635E-2,3.8815856E-2,-2.9311458E-2,-6.029865E-2,1.7570853E-2],"categories":[],"categories_nodes":[],"categories_segments":[],"categories_sizes":[],"default_left":[0,0,0,0,0,0,0,0,0,0,0,0,0,0,0,0,0,0,0,0,0,0,0,0,0,0,0,0,0,0,0,0,0,0,0,0,0,0,0,0,0,0,0,0,0,0,0,0,0,0,0,0,0,0,0,0,0,0,0,0,0,0,0,0,0,0,0,0,0,0,0,0,0],"id":25,"left_children":[1,3,5,7,9,11,13,15,17,19,21,23,25,27,29,31,-1,33,-1,-1,-1,-1,35,37,-1,-1,39,41,-1,43,45,47,49,51,53,-1,55,57,59,61,-1,63,65,67,-1,69,71,-1,-1,-1,-1,-1,-1,-1,-1,-1,-1,-1,-1,-1,-1,-1,-1,-1,-1,-1,-1,-1,-1,-1,-1,-1,-1],"loss_changes":[2.2451684E0,1.7977293E0,4.1132765E0,2.6515856E0,1.5092564E0,5.325498E0,3.6978102E0,2.7066138E0,9.940392E-1,1.4910801E-1,1.4639444E0,4.9951878E0,1.9637743E0,3.9152405E0,4.1609917E0,1.6024611E0,0E0,4.602973E-1,0E0,0E0,0E0,0E0,5.0551677E-1,6.730644E0,0E0,0E0,3.3416097E0,3.2964633E0,0E0,2.8002267E0,7.9815364E-1,1.7838941E0,2.1750727E0,3.067408E-1,9.9731916E-1,0E0,7.1673596E-1,4.156602E0,2.8382473E0,4.6444392E-1,0E0,7.1037707E0,7.978423E0,1.9223558E0,0E0,1.2779496E0,2.006161E0,0E0,0E0,0E0,0E0,0E0,0E0,0E0,0E0,0E0,0E0,0E0,0E0,0E0,0E0,0E0,0E0,0E0,0E0,0E0,0E0,0E0,0E0,0E0,0E0,0E0,0E0],"parents":[2147483647,0,0,1,1,2,2,3,3,4,4,5,5,6,6,7,7,8,8,9,9,10,10,11,11,12,12,13,13,14,14,15,15,17,17,22,22,23,23,26,26,27,27,29,29,30,30,31,31,32,32,33,33,34,34,36,36,37,37,38,38,39,39,41,41,42,42,43,43,45,45,46,46],"right_children":[2,4,6,8,10,12,14,16,18,20,22,24,26,28,30,32,-1,34,-1,-1,-1,-1,36,38,-1,-1,40,42,-1,44,46,48,50,52,54,-1,56,58,60,62,-1,64,66,68,-1,70,72,-1,-1,-1,-1,-1,-1,-1,-1,-1,-1,-1,-1,-1,-1,-1,-1,-1,-1,-1,-1,-1,-1,-1,-1,-1,-1],"split_conditions":[2.1E1,1E0,1E0,7E-1,4E0,1E0,1E0,1E1,1E0,1.2E1,1E0,6.8E1,3.3E1,1E1,3.1E1,1.3E1,4.5891214E-2,4.2857143E-1,6.438589E-2,-1.3524897E-2,1.2212804E-2,-1.0122981E-1,1.8E1,2.7E1,-6.487138E-2,-8.049252E-2,1E0,1E0,8.891871E-2,6E-1,6E0,1E0,1.4285715E-1,2E-1,4E0,-4.8089004E-3,1.9E1,7E-1,8.333333E-1,3E0,-6.0935464E-2,4E1,5.1E1,1E0,1.0279494E-1,1E0,1E0,-7.273025E-2,-6.0031135E-3,4.4528004E-2,-2.0606657E-2,1.100937E-2,-2.5460754E-2,-3.8330655E-3,4.7503676E-2,-7.0944384E-2,-1.0808032E-2,1.1112662E-2,-8.093872E-2,8.6566634E-2,3.6726117E-2,4.606152E-3,5.4451585E-2,5.812674E-3,-3.608791E-2,-3.0361777E-2,4.9310766E-2,-2.101695E-2,5.377635E-2,3.8815856E-2,-2.9311458E-2,-6.029865E-2,1.7570853E-2],"split_indices":[17,4,21,35,26,5,12,31,14,17,19,17,17,26,17,17,0,33,0,0,0,0,17,17,0,0,28,32,0,35,26,28,33,33,26,0,17,35,33,31,0,17,17,19,0,19,19,0,0,0,0,0,0,0,0,0,0,0,0,0,0,0,0,0,0,0,0,0,0,0,0,0,0],"split_type":[0,0,0,0,0,0,0,0,0,0,0,0,0,0,0,0,0,0,0,0,0,0,0,0,0,0,0,0,0,0,0,0,0,0,0,0,0,0,0,0,0,0,0,0,0,0,0,0,0,0,0,0,0,0,0,0,0,0,0,0,0,0,0,0,0,0,0,0,0,0,0,0,0],"sum_hessian":[6.836056E2,1.21167885E2,5.624377E2,9.727276E1,2.3895132E1,1.20498055E2,4.4193964E2,7.270815E1,2.4564598E1,7.0942426E0,1.680089E1,1.0270998E2,1.778808E1,4.0082602E2,4.111361E1,6.742857E1,5.2795844E0,2.1326393E1,3.2382054E0,3.0998018E0,3.9944408E0,4.026796E0,1.2774095E1,9.7867226E1,4.842746E0,4.83609E0,1.295199E1,3.9757944E2,3.2465875E0,1.97174E1,2.1396212E1,1.6896723E1,5.053185E1,7.441858E0,1.3884535E1,4.6966043E0,8.077491E0,3.779083E1,6.0076397E1,7.159977E0,5.792013E0,2.760435E2,1.2153595E2,1.2602192E1,7.115207E0,9.836158E0,1.1560054E1,1.0430398E1,6.4663258E0,4.8132834E0,4.5718567E1,3.5630898E0,3.878768E0,7.6663E0,6.218235E0,4.186502E0,